-0.0588583598,-0.0151269497,-0.0268513063,-0.0150128451,-0.0237731610,-0.0184458825,-0.3217591401,-0.0347290540,-0.0139261633,-0.0306845221,-0.0540031915,-0.0808547461,-0.0066219762,-0.0638109099,-0.0662632461,-0.0501119776,-0.1271549683,-0.0151729487,-0.0282531354,-0.2272872820,-0.1983558905,0.0241010866,0.0140353122,-0.0222412708,-0.0236966460,-0.0225678177,-0.0212516975,-0.0143094532,-0.0149209273,-0.0286394970,0.0109828346,0.0435541588,-0.0177854407,-0.4944448390,-0.0080242345,-0.1679417161,0.0313404227,-0.0552645015,-0.0267288465,0.0125208708,-0.0328271486,-0.0026578950,-0.0057816198,-0.2781515656,-0.0329648923,0.0017626439,-0.0278948122,-0.0201019578,-0.0152906346,0.3043232381,-0.1868780998,0.0915555263,0.0753257142,-0.0075904903,-0.0449124877,-0.0031988853,-0.1652915268,0.4066148658,-0.0340028682,-0.0050387002,-0.0166962369,-0.0136587912,-0.0519853477,-0.0208084650,-0.0315668204,-0.0259522842,-0.0197942598,-0.0768283177,-0.0188823937,-0.0112484415,-0.3797262383,-0.0135400275,-0.0294738826,-0.0924680248,-0.0859668829,-0.0776606676,-0.0363473679,-0.0111390738,-0.0187807618,-0.0408206463,0.0176269110,-0.0127919915,-0.0381168986,-0.1324259221,0.2249799338,-0.0010148717,-0.0049180413,-0.0325189522,-0.0344380684,-0.0057192828,-0.0111816130,-0.0163623470,-0.0082768818,-0.0396057024,-0.0109032353,-0.0644046703,-0.0249341967,-0.0235724047,0.0049796044,-0.0030884782,-0.0039946456,-0.0400430237,-0.4143983313,-0.0241963256,-0.0127819256,-0.0027255677,0.0101978728,0.0307868288,-0.0227296155,-0.0134094880,-0.0271987720,-0.0223844699,-0.0208398173,-0.0054334317,-0.0335131414,-0.0174601730,-0.0062727059,-0.3551111386,-0.1777900604,-0.0271415014,-0.0153560059,-0.0145813759,-0.0006442925,0.0090455473,-0.0204761320,-0.0195713722,0.0695738450,-0.0011753719,-0.0047235351,0.0025086573,-0.0075790256,-0.0767514443,-0.0776335996,-0.1043313434,-0.0057813007,-0.0091320981,0.1075628965,-0.0184729483,-0.0087905525,-0.0167267738,-0.0073557062,-0.1003492890,0.0054549636,-0.4550893225,-0.0324657620,-0.0555549232,-0.0463325504,-0.0111917535,-0.2349582619,-0.0317649844,-0.0489323412,-0.0870967495,-0.0158969469,0.0716082422,-0.0144511927,-0.0476552339,-0.0080223627,-0.0128366814,-0.0159939366,0.0442621867
0.0722622504,-0.0160348887,-0.0169897844,-0.0279016954,-0.0095110800,-0.0113152114,0.0131708551,-0.0105143829,0.0051978388,-0.0223813317,0.0004883602,0.0876130664,-0.0100686922,-0.0300170376,0.0031788685,0.0948198638,-0.0346753931,-0.0260070315,-0.0151358315,-0.4700656450,-0.1964229086,-0.0422472327,-0.0828503432,-0.0264998713,-0.0037446711,-0.0103315860,0.0003816763,-0.0269704201,-0.0054366210,0.0007474808,-0.0044929672,0.0662943071,-0.0311659834,-0.2077666490,-0.0391180902,0.3009916476,-0.1141178992,-0.0301725972,0.0001288040,-0.0112277463,-0.0186017577,-0.0176049534,-0.0263018826,-0.2391599192,-0.0019447384,-0.0055546660,-0.0002991788,-0.0029870374,-0.0322180361,-0.1343353321,-0.2091782562,0.0595399992,0.1033045453,-0.0366242545,0.0003349464,-0.1726670643,-0.0108559708,0.1556602600,-0.0209411713,-0.0138553001,-0.0185842042,-0.0484544279,0.0398025177,-0.0158532719,-0.0199264564,-0.0103401945,-0.0339879575,-0.0341030113,0.0534582503,-0.0243955355,0.1884936620,-0.0245817708,-0.0141172014,-0.0363066972,-0.0430323345,0.0059277858,-0.0091500740,-0.0111925345,-0.0303890788,-0.0943436424,0.0374566319,-0.0440128742,-0.0275137314,-0.2831711294,-0.2315461205,-0.0296503473,-0.0529369737,-0.0300349210,0.0211573353,-0.0422848575,-0.0404625865,0.0047588517,0.0115974091,-0.0024733377,-0.0382083997,0.0997745967,-0.0174428655,-0.0328879511,-0.0201768009,-0.0197646883,-0.0127563101,-0.0077860100,-0.4569963765,-0.0431791524,0.1791585208,-0.0050520427,-0.1340673054,-0.0247492386,-0.0307617058,-0.0010238037,0.0117683324,-0.0065602812,-0.0181533991,-0.0123998735,0.0215051515,0.0011935318,-0.0306698159,-0.1814557923,-0.0944561386,0.0541810879,0.0073770501,-0.0057610428,-0.0068283063,-0.0204786802,-0.0196300745,-0.0040263030,0.0602438321,-0.0469645704,-0.0081712919,-0.0304535219,-0.0124633137,-0.0575207934,-0.0913326416,-0.1318140367,-0.0353672366,-0.0186656489,-0.1199249693,-0.0122110157,-0.0069380754,-0.0199254835,-0.0277955306,0.3043323339,-0.0205700608,-0.4267328172,0.0013080289,0.0213889254,-0.0203482633,0.0127365929,-0.2629951269,-0.0471431851,0.0708049419,0.0981955112,-0.0051462000,0.0811047409,-0.0590088028,-0.0037730950,-0.0174679879,-0.0164337963,-0.0251488243,0.0096890291
0.0480511578,-0.0119399752,-0.0358687118,-0.0422661802,-0.0178031298,-0.0384319294,0.1841610522,-0.0531121001,-0.0201622509,0.0233880597,-0.0655128538,-0.0693970966,-0.0542172985,-0.0878263201,-0.0258416495,-0.5878497709,-0.0393090926,-0.0390242648,-0.0103803291,-0.2829681934,0.1048587041,-0.1274696393,-0.0761015654,-0.0485475482,-0.0152132464,-0.0169621816,-0.0419551324,-0.0431214785,-0.0332314352,-0.0274149337,-0.0249861591,0.0688901973,-0.0395487853,-0.0443305423,-0.0270956446,0.2403809097,-0.0346707541,-0.0895957360,-0.0292151012,-0.0200729851,-0.0189322408,-0.0253666347,-0.0335841140,-0.1021905837,-0.0064840718,-0.0127192909,-0.0181985596,-0.0228884262,-0.0273223696,0.0912684125,-0.2872542574,0.2724705344,0.0000808744,-0.0508576434,-0.0446254409,0.1989246945,-0.2445841621,0.1007653730,-0.0429473041,-0.0365978760,-0.0767570086,-0.0444077545,0.0139982151,-0.0422389993,-0.0198942860,-0.0338659574,-0.0199573405,0.0194775522,-0.0956911825,-0.0351956770,0.3943830963,-0.0406365782,-0.0599010181,-0.1051310600,-0.1440216468,-0.0808666363,-0.0165223590,-0.0274845218,-0.0553022455,0.0933122822,0.1061268776,-0.0164376894,-0.0439418935,0.0018142076,-0.1378632312,-0.0410295405,-0.0413166894,-0.0318610961,-0.0001180900,-0.0532343433,-0.0542904123,-0.0350497717,-0.0173856008,-0.0154476774,-0.0194551970,-0.3047210440,-0.0444837015,-0.0262620071,-0.0285921397,-0.0491809322,-0.0202452375,-0.0198596593,-0.4710147903,-0.0105293145,0.2460157745,-0.0108820455,0.0605116510,-0.1157007433,-0.0297127769,-0.0356385813,-0.0170502725,-0.0100630248,-0.0277097389,-0.0334766073,-0.0375758907,-0.1426630073,-0.0157508950,-0.3824861344,-0.0417294428,-0.0806442921,-0.0213027160,-0.0316742077,-0.0334692791,-0.0381687627,-0.0380542963,-0.0122202358,-0.1942278424,-0.1522632421,-0.0354517043,-0.0514035555,-0.0181048726,-0.0198544723,0.1496045928,-0.1067021669,-0.0529769745,-0.0310438058,-0.2569912837,-0.0222397284,-0.0276658912,-0.0409158722,-0.0655700386,-0.1153325669,-0.0204730823,-0.2555526042,-0.0123440095,-0.0233138075,-0.0325098443,0.0153214273,-0.4079417187,-0.0355280659,-0.0827584030,-0.0066698929,-0.0250362609,0.0455079157,-0.0842978709,-0.0383069441,-0.0514977116,-0.0374750316,-0.0402472319,-0.0966664613
0.0002989186,-0.0469230000,-0.0399888386,-0.0673035107,-0.0328151558,-0.0590651138,-0.0784340483,-0.0365242528,-0.0370394388,-0.0100489992,-0.0537114432,0.2523926894,-0.0316125741,-0.0570207567,-0.0038204355,-0.0667941546,0.0426736626,-0.0371559857,-0.0045426226,-0.3994626659,-0.3061813008,-0.0083638782,0.0923877209,-0.0184641792,-0.0131646098,-0.0219070749,-0.0738050998,-0.0295760249,-0.0591186679,-0.0515865802,-0.0841981264,-0.0138913353,-0.0323214873,0.2408057493,-0.0627783414,-0.0013371503,0.0785895684,-0.1095105428,-0.0458110892,0.1173590229,-0.0470527280,-0.0545904895,-0.0671948716,0.0689376612,-0.0369394818,-0.0391437760,-0.0334186890,-0.0506685356,-0.0638342356,-0.2982452717,0.2246229364,-0.0107054875,0.1063211013,-0.0418835833,-0.0281825142,-0.1428327254,0.0019340195,-0.2373483757,-0.0283380672,-0.0574941184,-0.0706290052,-0.0199436613,-0.0985998064,-0.0319445059,-0.0337905878,-0.0303268747,-0.0579217215,0.0827567396,-0.0149017400,-0.0387099681,0.3792230859,-0.0439959649,-0.0666425334,-0.1547189178,-0.0421753090,-0.0409621064,-0.0418713666,-0.0350095818,-0.0632024420,-0.1902225456,-0.6672680530,0.0161509818,0.0203680876,0.1691919195,-0.7189102502,-0.0750448210,-0.0590180955,-0.0671174359,0.0251316914,-0.0150099072,-0.0577557056,-0.0498931015,-0.0346894307,-0.0316449028,-0.0477737247,-0.1600915338,-0.0336309482,-0.0162320259,-0.0474731813,-0.0575637057,-0.0338532908,-0.0401641399,-0.1451004872,0.0024326079,0.0211819554,-0.0799799031,-0.0293318935,-0.0710892880,-0.0306071700,-0.0313747866,-0.0671519047,-0.0218253379,-0.0568347128,-0.0488159412,-0.0268757997,-0.1501417575,-0.0221170322,0.1744201429,-0.0501957440,-0.0739192856,-0.0435089400,-0.0327018856,-0.0415542288,-0.0232137710,-0.0585711462,-0.0453661899,-0.0940051620,-0.1129268796,-0.0616832221,0.2564114388,-0.0268663342,-0.0786000267,0.0257738474,-0.1727827431,-0.0571956889,-0.0427658095,-0.4695295737,-0.0235320098,-0.0485470374,-0.0405408595,-0.1168009475,-0.1778887223,-0.0311257289,0.6661194062,-0.0244784821,-0.0102029273,-0.0230052052,-0.0416983791,-0.6330213483,-0.0291828267,0.2345233884,-0.4133604973,-0.0277960567,-0.1468303960,0.0063688797,-0.0320554376,-0.0307444036,-0.0550455203,-0.0433510189,-0.0742139800
-0.1615431195,-0.0594040042,-0.0515754152,-0.0312984105,-0.0780850566,-0.0438671808,-0.2323142057,-0.0797704069,-0.0446113563,-0.0710237589,-0.0867802877,-0.2290300582,-0.0297120923,-0.1090323334,-0.0802448514,-0.2449086090,0.1255546482,-0.0308202579,-0.1003059096,0.8384680078,-0.0595586614,-0.1134104448,0.0842169609,-0.0309448490,-0.0588481021,-0.0530409752,-0.0239403861,-0.0126984849,-0.0558719442,-0.0630288986,-0.0359783801,-0.2405531949,-0.0185907874,-0.5189461236,-0.0685005821,-0.0894553516,-0.1452382187,-0.0501705345,-0.0722787170,0.0607200601,-0.0704477905,-0.0523728601,-0.0093557273,-0.1395219516,-0.0681605588,-0.0414476748,-0.0546369107,-0.0649796382,-0.0361828797,0.1157824010,-0.1627003266,-0.0166825007,-0.2258706188,-0.0207687564,-0.0598584228,-1.0297529221,0.0259160181,-0.2055441953,-0.0577476334,-0.0521055958,-0.0147967477,-0.0256534610,-0.0401579177,-0.0323412167,-0.0691319825,-0.0524233809,-0.0450604434,-0.0177131811,-0.2098647005,-0.0524998133,-0.0321094350,-0.0317163228,-0.0781464638,0.0857956087,-0.0452213315,-0.0504678326,-0.0745852566,-0.0548304454,-0.0117992175,-0.0881208197,-0.2978051836,-0.0380456369,0.0076049596,-0.3574854797,0.0426644959,-0.0385551088,-0.0493181071,-0.0645651033,-0.0658812162,-0.0108418642,-0.0104184854,-0.0582883118,-0.0858540678,-0.0965744174,-0.0501533963,-0.2477137418,-0.0527582094,-0.0094515381,-0.0382210685,-0.0304768384,-0.0710630565,-0.0704584345,0.2818014177,-0.0172595942,-0.0425193699,-0.0570702267,-0.0723356116,0.0797343628,-0.0252621846,-0.0415357501,-0.0680737415,-0.0810858065,-0.0637238761,-0.0664632953,-0.1039242536,0.0535019014,-0.0325339470,0.0788000179,0.1138598834,-0.0567573515,-0.0547226474,-0.0189551069,-0.0386976147,-0.0529062972,-0.0555034810,-0.0656088382,0.0545203336,-0.1289825034,-0.0492354950,0.1732803175,-0.0792359880,-0.0637247298,0.3213778658,-0.0165802547,0.0036063802,-0.0537886237,0.0543589992,-0.0530245462,-0.0662562859,-0.0360754768,-0.0118810335,-0.3303081967,-0.0577892219,0.8300420084,-0.0909701113,-0.1039151590,-0.0886465903,-0.0723634849,-0.1418171819,-0.0135157276,0.6211276804,0.0144366193,-0.0712600931,0.1809118748,0.0232105215,-0.0716530331,-0.0355658590,-0.0553911690,-0.0488001059,0.1079895548
-0.1609515390,-0.0691803631,-0.0489288885,-0.0272210083,-0.0685293277,-0.0531024367,0.0167364087,-0.0713020949,-0.0799048798,-0.0641921578,-0.0509677503,0.0781217928,-0.0302204806,-0.0505314102,-0.0563876710,0.2487536512,0.0189046982,-0.0852062362,-0.0616933311,0.7422496598,-0.0327567852,-0.1359653115,-0.1332245240,-0.0479903827,-0.0494436254,-0.0552083198,-0.0507025533,-0.0537562930,-0.0560392735,-0.0352370812,-0.0299253199,-0.0060268208,-0.0466002397,-0.1752229282,-0.0311280558,-0.0125104239,-0.1541342840,0.0040085385,-0.0751997573,-0.2350702571,-0.0416821317,-0.0500943770,0.0021292558,0.1343309740,-0.0621057596,-0.0533843940,-0.0393510245,-0.0551117854,0.0154452015,0.0315228581,0.2078499510,-0.2209570255,-0.2061755354,-0.0299010419,-0.0521616693,-0.2267708357,0.1694346673,0.0620311710,-0.0555191182,-0.0532410678,0.1074927016,-0.0248559549,-0.2418062479,-0.0538940524,-0.0543323878,-0.0461960330,-0.0310269409,0.0130264829,-0.0668273473,-0.0574037705,0.3552404320,-0.0467335838,-0.0790313349,0.0655042747,-0.1164894069,-0.0330698648,-0.0687217351,-0.0396931451,-0.0322730276,-0.0541790612,0.3744965292,-0.0611929483,-0.0176050080,-0.0708108327,0.5014174286,-0.0179367743,-0.0230203084,-0.0486514569,-0.0750594598,-0.0150039116,-0.0327714510,-0.0524119693,-0.0752645425,-0.0671504227,-0.0353397489,-0.0187548743,-0.0448616896,-0.0683453122,-0.0545317153,-0.0072578758,-0.0496294527,-0.0591823258,-0.0137216629,-0.0021595680,-0.2994628511,-0.0227892756,0.1021708725,-0.0218672275,-0.0270269162,-0.0512983724,-0.0375637768,-0.0702781783,-0.0540823887,-0.0508276900,-0.0527409732,-0.2084151392,-0.0456563859,-0.3942137302,0.1096669089,-0.0160461286,-0.0571459092,-0.0539793503,-0.0533868290,-0.0391536874,-0.0382894915,-0.0469926559,0.0038126249,0.0511826760,-0.0379200538,0.0553143171,-0.0698673753,-0.0341013679,-0.0040885933,-0.1445988277,-0.0474537350,-0.0480883278,0.0464557735,-0.0533606429,-0.0437454391,-0.0360321700,-0.0200320681,0.0416148470,-0.0427259983,0.4516529516,-0.0634405925,-0.0664416860,-0.0748527866,-0.0639528117,0.6819444720,-0.0541525643,0.3392082042,0.1826100433,-0.0706890399,0.1370728378,-0.0392142152,-0.0881852940,-0.0308946412,-0.0607882077,-0.0495380809,0.3001377195
-0.0399342879,-0.0618068366,-0.0636071318,-0.0512247350,-0.0369257018,-0.0464874789,0.0044214503,-0.0739863824,-0.0603490700,-0.0074927036,-0.0511059571,-0.0456765134,-0.0479131995,-0.0484148475,-0.0487490120,0.1444879266,0.0190579096,-0.0286070896,-0.0513907587,0.0038485121,-0.0936040516,0.0823878213,-0.0592849224,-0.0603699673,-0.0551717729,-0.0650665481,-0.0164570745,-0.0486585898,-0.0380549651,-0.0610391333,-0.0520927856,-0.1511526524,-0.0411123995,0.1161484595,-0.0383520069,-0.3139142881,0.0108453047,-0.0750509465,-0.0403395577,0.0097676898,-0.0499689793,-0.0469225428,-0.0040974422,0.0761982539,-0.0368904068,-0.0194035507,-0.0431116721,-0.0726547366,0.0189085338,0.1085719772,0.1694659955,0.1670422568,-0.0033015811,-0.0167462317,-0.0630884715,-0.5795624815,-0.2090992707,0.2480064103,-0.0396963951,-0.0483963160,0.0366799287,-0.0162809182,-0.0299166104,-0.0430486538,-0.0799791246,-0.0529694879,-0.0298353868,0.1055251164,-0.0118144568,-0.0488170279,-0.4167633557,-0.0501845559,-0.0505688404,-0.1114127952,-0.1104718287,-0.0337061685,-0.0233217911,-0.0295004501,-0.0548493220,-0.1070326243,-0.0801308762,-0.0950692397,0.0223544576,0.0102556872,0.3590601421,-0.0446763348,-0.0413912426,-0.0410471387,-0.0470015706,-0.0576137310,-0.0481343074,-0.0607841749,-0.0489161131,-0.0918204685,-0.0506535791,-0.0361075767,-0.0496884952,-0.0351026054,-0.0554293367,-0.0257736375,-0.0511261314,-0.0462225349,0.1056448987,0.0149899638,-0.1816126315,-0.0483798835,-0.1267430351,-0.0126148434,-0.0512251342,-0.0596902904,-0.0333411716,-0.0567635458,-0.0412722684,-0.0663983879,-0.0624344666,0.0471712413,-0.0432211109,0.1750158092,-0.1641735410,-0.0841165169,-0.0427161542,-0.0580604630,-0.0664251527,-0.0409228625,-0.0593370868,-0.0671579635,-0.0471620446,0.0284071191,-0.0350840790,-0.0361572270,-0.0697600607,0.1709393673,0.1017425368,-0.2374214350,-0.0599095702,-0.0607499879,0.1163415034,-0.0333335731,-0.0356434103,-0.0630765349,0.0148910431,-0.0094037661,-0.0484205416,0.0740434452,-0.0566386633,-0.0810461090,-0.0789288323,-0.0699658664,-0.0327524136,-0.0366291334,0.0001600006,0.0209568318,-0.0472564901,-0.1723784193,-0.0381943120,-0.0746538961,-0.0172204168,-0.0693031117,-0.0626286007,-0.0619721487
-0.0880924489,-0.0239397307,-0.0198620895,-0.0468457840,-0.0048350311,-0.0294683372,-0.2540095992,-0.0196244010,-0.0261749049,-0.0325622416,-0.0057056199,0.1247379092,-0.0521971409,0.0354512475,0.0190629262,-0.2311006579,-0.1298378307,0.0106836950,0.0335007220,-0.5172834008,-0.3471670481,-0.2413358713,0.1723908203,-0.0576083633,0.0150202328,-0.0065414703,-0.0089268597,0.0027155718,-0.0322136978,-0.0254369776,-0.0367752848,-0.2961199226,-0.0568222356,0.3709728779,-0.0429792720,-0.2816589541,-0.1158539654,0.0127632134,0.0107205477,-0.1024992208,-0.0186020918,0.0087544891,-0.0765619080,0.0272875265,-0.0142486570,-0.0227143105,-0.0013298770,-0.0306072493,-0.1050015041,-0.4127673704,0.0716302309,-0.0065374769,-0.0535572330,-0.1095823021,0.0130785799,-0.1864099666,-0.1128299520,0.1074898465,0.0069871850,-0.0224757840,-0.1161118732,-0.0650815288,0.0649953745,-0.0429622504,-0.0093089247,-0.0465855285,-0.0460487066,-0.0552818826,-0.0630546252,-0.0352770748,0.1193454369,-0.0263672472,-0.0392372149,-0.0305323155,-0.0799071714,-0.2100046523,0.0137319126,-0.0334468125,-0.0231745902,-0.0245035179,-0.3515637794,-0.0154397440,-0.1358565561,-0.0905475557,-0.0008529063,-0.0522369130,-0.0822474802,-0.0391856205,-0.0304172258,-0.0265218763,-0.1048995137,-0.0154343858,0.0161082184,0.0110362890,-0.0239933124,-0.1296844903,-0.0176595824,-0.0785679362,-0.0778130213,-0.0945905691,-0.0182676738,-0.0053854728,0.0847138761,-0.0870856741,-0.2852519543,-0.0276340885,-0.1028867156,-0.0432705287,-0.0689724738,-0.0093677982,-0.0147018622,0.0008506598,-0.0333679147,-0.0035776002,0.0107155839,0.2227777941,-0.0536593188,-0.2557395398,-0.2011987896,-0.0150942718,-0.0141994990,-0.0488367349,-0.0264491689,-0.0411662124,-0.0376550587,-0.0270062477,-0.0071312898,-0.1412673517,-0.0293356235,-0.2095399031,0.0066903399,0.0714545988,0.0436299173,-0.1203210398,-0.0509613208,-0.0237419423,-0.1534010171,-0.0223726872,0.0070968508,-0.0489077086,0.0300389994,0.4188078158,-0.0170965161,-0.5280305208,0.0015671638,0.0039753150,0.0010920045,-0.0163136433,0.0363553782,-0.0781090305,-0.4322220110,-0.0077025885,-0.0150885030,-0.4728297939,-0.0001425866,0.0047522089,-0.0655571304,-0.0078876882,0.0186836357,-0.1110038882
-0.2125662649,0.0219908425,0.0009387054,0.0221023304,-0.0070619678,0.0279725464,0.0951606156,-0.0159735098,0.0403246866,0.0493659985,-0.0680622762,-0.3260304787,0.0122328749,-0.0581866900,-0.0461310871,0.0526891608,0.0093399568,0.0249491402,-0.0184027055,-0.5750845013,0.1388419087,-0.0440821012,-0.1109583341,-0.0077436755,-0.0172478993,0.0207318576,0.0387144087,0.0023688917,0.0077879692,-0.0075928071,0.0079903034,0.0855294598,0.0440189681,-0.3872299928,0.0148698582,-0.1280412323,0.0295309212,-0.0691618842,-0.0068697980,-0.0474100245,0.0101463400,0.0058588488,0.0084854278,0.0006416131,0.0025991253,0.0328611334,0.0177392985,0.0213777740,0.0042886839,-0.2226364569,0.0329290662,-0.0185166265,-0.0634832539,-0.0121094263,-0.0253807826,-0.0089723283,0.0302356769,0.2355807266,-0.0057644847,0.0148176588,0.0011932092,0.0089142292,0.0401686239,0.0267357753,0.0007880669,0.0177405650,0.0180025903,0.0865985925,-0.0945274679,0.0108588110,-0.3312418819,0.0224369147,0.0320826172,-0.1600056233,-0.0056872537,-0.0921628981,-0.0095154110,0.0059503009,-0.0083450687,-0.1356936775,0.0264167984,-0.0093289046,-0.0031463013,-0.2917120209,0.7326732354,0.0208957040,0.0288695706,0.0172864575,0.0099531357,0.0120778446,0.0090944283,0.0098311690,-0.0250624060,-0.0611415525,-0.0006702812,0.1566773780,-0.0012616518,0.0010931180,0.0169443967,0.0003457682,0.0126883074,-0.0150650933,-0.6721200514,0.0064184313,-0.0702338782,0.0174075012,-0.0788908728,-0.0004107810,-0.0003607109,0.0192102593,0.0243750428,0.0024019456,0.0016553014,0.0048592722,-0.0243273257,-0.0220866312,0.0029962459,-0.5207988781,0.0163469857,-0.0673730376,0.0151200092,0.0089428052,0.0135780750,0.0347842192,0.0300124905,0.0222552047,0.0845122042,-0.0259917018,0.0050312538,-0.0887047028,0.0139877255,0.0413524043,-0.0887246101,0.0921699315,0.0131367385,0.0122267172,0.2356905867,0.0208049329,0.0228990869,-0.0061425904,0.1077952984,-0.0651755396,0.0039659382,-0.1776890215,-0.0057492119,-0.0464480264,-0.0337671187,0.0301817727,-0.1895362172,-0.0055952726,0.4190972875,-0.2085114866,0.0150579037,-0.8894528043,0.0124539059,-0.0401717271,0.0075265511,-0.0050144877,-0.0032483242,-0.0736148386
-0.0089075278,0.0529844079,0.0562585955,0.0481384902,0.0527546080,0.0353422021,-0.0895481865,0.0441491582,0.0712108623,0.0532511657,0.0393880551,0.0432914696,0.0406732878,0.0734646040,0.0600446160,-0.1428007652,0.0225062502,0.0596757350,0.0385869611,-0.7596364140,0.0846514147,0.0403923498,0.0525499191,0.0278546177,0.0672238106,0.0660451378,0.0267280464,0.0489123023,0.0471742713,0.0624672049,0.0583899344,-0.0414632523,0.0645101363,-0.0957362380,0.0548388207,0.0310442467,0.1012026175,0.0580405882,0.0657698572,-0.0733138726,0.0659080054,0.0722475823,0.0522252112,0.0397017645,0.0502574899,0.0425662622,0.0698679365,0.0468785545,0.0447327427,0.3944353076,-0.0085652561,0.1384161173,0.1068856444,0.0489831090,0.0436676047,0.0298018337,0.1004915806,0.1979924865,0.0414886308,0.0751397270,0.0538829162,0.0261156744,0.0349029404,0.0310278570,0.0687713141,0.0520523255,0.0528713577,0.0197187784,0.0854449902,0.0672314955,-0.0029363265,0.0559938634,0.0499665832,0.0152647784,0.0468117931,0.0086915754,0.0603401794,0.0546650365,0.0503820167,0.0306574932,-0.0530805903,0.0583555299,0.0196061429,0.1951859475,-0.1617445977,0.0451036281,0.0363758168,0.0609702432,0.0644258467,0.0508871608,0.0325721924,0.0613661154,0.0790696850,0.0708644263,0.0441509369,0.0285596014,0.0498652610,0.0425408652,0.0482230123,0.0405342328,0.0492892755,0.0628173209,-0.1021657262,0.0450765860,-0.2038971196,0.0606372529,-0.0183091250,0.0328886432,0.0317026041,0.0448247927,0.0638804345,0.0545271492,0.0629696105,0.0745101874,0.0578058298,-0.0258231097,0.0570620183,-0.0079673976,-0.0546449700,0.0485548840,0.0534250727,0.0589260394,0.0773554924,0.0741539018,0.0498401685,0.0524734779,0.0705478244,0.0236524142,0.0537731223,0.0297164507,0.0597979352,0.0691100759,-0.0457376615,0.0388977696,0.0457295159,0.0442213290,0.1295956348,0.0600101856,0.0634642663,0.0504154562,0.0304990480,0.1569334505,0.0468258200,-0.2236694058,0.0461289028,0.0587198295,0.0670216882,0.0407510301,0.1359948703,0.0414063627,-0.0172206482,-0.0194779161,0.0627238153,-0.0174556274,0.0410395851,0.0383146189,0.0478690813,0.0539433534,0.0652585849,-0.0181634937
-0.0047963515,-0.0294885600,-0.0185302204,-0.0158919814,-0.0211912973,-0.0394707064,0.1902346916,-0.0248246386,-0.0343010188,-0.0357590621,-0.0485168988,-0.2344827565,-0.0138054935,-0.0407357885,-0.0316663158,-0.1552551333,-0.1545156710,-0.0329966034,-0.0144718348,-0.2821974448,-0.0106377935,0.0896845609,-0.0837629869,-0.0175177005,-0.0349857693,-0.0215207822,-0.0418721749,-0.0070196117,-0.0251044743,-0.0091670695,-0.0240482003,-0.0460490324,-0.0400669541,-0.2611579837,-0.0295205214,-0.3456319587,-0.0182330877,-0.0570047132,-0.0217882032,-0.1396187130,-0.0064796914,-0.0290255939,-0.0283642685,0.0238722574,-0.0357489412,-0.0233969698,-0.0497424406,-0.0157604037,-0.0549615029,-0.1163576199,-0.3048317918,-0.0262069104,0.1397155653,-0.0283741537,-0.0056055881,0.0530949597,-0.2838935543,0.3395328104,-0.0201240915,-0.0021474362,-0.0250837624,-0.0384393872,-0.0744336341,-0.0313747586,-0.0205745781,-0.0282987530,-0.0418262941,-0.1036781031,-0.0446213166,-0.0119201655,-0.2437885653,-0.0096342984,-0.0230324279,-0.0763002535,0.0383163777,-0.0765872701,-0.0276535536,-0.0111083057,-0.0250662481,0.0470020394,0.0235561923,-0.0140811175,-0.0641902495,-0.4382160440,-0.0049811512,-0.0112868440,-0.0093078378,-0.0304484129,-0.0240216541,-0.0129057007,-0.0347484384,-0.0078154999,-0.0296100427,-0.0301753782,-0.0231072717,0.0849790660,-0.0269494432,-0.0509873657,-0.0338490799,-0.0358013956,-0.0164274585,-0.0150371536,-0.2365544918,-0.0315710029,0.0484882662,-0.0199772794,0.0120349531,-0.0819979176,-0.0214265846,-0.0367582632,-0.0261398171,-0.0168154891,-0.0198933311,-0.0263381503,-0.0191194658,0.0844588654,-0.0148532742,-0.0174095125,-0.3525899121,-0.0349195814,-0.0088197386,-0.0131633945,-0.0178031360,-0.0162718443,-0.0161255055,-0.0232189537,-0.0219546337,0.0457855178,-0.0385654815,0.0161512580,-0.0280760727,-0.1699983222,-0.1510532448,-0.1313699002,-0.0031306464,-0.0298192911,0.4214497557,-0.0286294556,-0.0120905958,-0.0074445478,-0.0235450964,-0.1895468686,-0.0264386121,0.1218412641,-0.0274473494,-0.0092412703,-0.0263351583,-0.0210275478,-0.0843319581,-0.0309472501,0.0572583665,0.0322125089,-0.0146298459,0.1523457728,-0.0129225671,-0.0207724344,-0.0180040760,-0.0246840798,-0.0039734982,-0.0312882238
-0.0011885984,-0.0014138609,-0.0230361948,-0.0186808987,0.0064295413,-0.0073416350,0.1545147948,-0.0006133436,-0.0172868827,-0.0711562045,-0.0263471533,-0.1052635403,-0.0258665632,0.0301684020,-0.0058265200,-0.0038848133,0.0136680802,-0.0233251773,0.0008690879,-0.2238062635,0.0325264188,-0.0114063434,-0.0031211086,-0.0176058718,0.0026854270,-0.0061231416,-0.0378451528,-0.0076015803,-0.0166238266,-0.0290747268,0.0022006852,0.0479676752,-0.0252568513,0.2612740990,0.0016860742,0.1298849677,0.0017217671,-0.0034696459,0.0131980228,-0.1602397745,-0.0057731230,-0.0065611741,-0.0370793489,-0.1415226410,-0.0101735481,-0.0153782963,-0.0148957126,-0.0206859694,-0.0501974546,0.1378356557,0.0250550512,0.0645251312,0.0672620522,-0.0179461651,0.0021671778,-0.1238807306,-0.1689472680,0.2882891639,-0.0097481999,-0.0108472031,0.0163278333,-0.0337863483,-0.0056418380,-0.0413331950,0.0120491554,-0.0118368198,-0.0148496489,-0.1139879890,0.0053368709,-0.0131297102,-0.1560198528,-0.0076798691,-0.0207354133,-0.0476267605,0.0398214576,0.0453789273,0.0091825767,-0.0257088382,0.0023697425,-0.0302080860,-0.1720895414,-0.0056212667,-0.0067942802,-0.1132252928,-0.0695943409,-0.0110467593,-0.0252488526,-0.0234255414,-0.0012284589,-0.0338710206,-0.0313318732,-0.0189021463,0.0140992123,0.0140403528,0.0046336028,-0.1547308280,-0.0180710819,-0.0480790092,-0.0103174778,-0.0676029204,0.0019052854,0.0044163126,-0.0469885672,-0.0279808644,-0.0991290547,-0.0130796562,-0.1233487407,-0.0634908162,-0.0392814354,-0.0220560782,-0.0160340785,0.0203728627,0.0020890575,-0.0214704193,0.0209539838,-0.0204448585,-0.0096929917,-0.0668918437,0.0300105117,0.0486088286,-0.0187408192,-0.0262983841,-0.0226752027,-0.0363515368,-0.0185404742,-0.0092177520,-0.0071467977,-0.0100289271,0.0009910265,0.0521756560,-0.0197564221,0.0543148770,0.3132624990,0.0118179231,-0.0080272504,-0.0151911210,0.2530897504,-0.0351188474,-0.0065571805,-0.0111879786,-0.0579227649,0.0431065388,-0.0188039531,-0.2089230264,0.0016259566,0.0090166010,0.0115854735,-0.0070661844,0.1585964694,-0.0205611893,0.0477369741,-0.1950803389,0.0012023774,0.1505507319,-0.0282064416,0.0131993851,-0.0298492856,-0.0046128246,-0.0267573064,-0.0972396153
0.0751607654,-0.0347800012,-0.0399666222,-0.0205041818,-0.0274622416,-0.0544627352,0.1345234005,-0.0506794064,-0.0357427415,0.0044632077,-0.0541279323,0.4095125528,-0.0444053855,0.0079110666,-0.0124368582,-0.2913248391,-0.0307444292,-0.0406117948,-0.0204390788,-0.1500974289,-0.1338405821,-0.0689761812,-0.0115768606,-0.0289479151,-0.0140653350,-0.0084930818,-0.0293887553,-0.0383247064,-0.0126762731,-0.0224131976,-0.0253171455,0.1350635822,-0.0145133578,0.2729623478,-0.0142463549,0.0593966127,-0.1558431061,-0.0349522490,-0.0117583735,0.0501621386,-0.0159450875,-0.0278240168,-0.0271999006,-0.1966818015,-0.0233196385,-0.0571437172,-0.0219032315,-0.0247384621,-0.0161117045,-0.0482760963,0.0770589564,0.0969033272,-0.0734135156,-0.0231886775,-0.0124307336,0.0837057997,0.1151038347,-0.3387459884,-0.0315383183,-0.0261521031,-0.0703812969,-0.0043730163,-0.1269433328,-0.0278820518,-0.0184536795,-0.0185348837,-0.0202062024,-0.0183379877,-0.0006446102,-0.0429534742,0.2379459333,-0.0377208813,-0.0284882838,-0.0119034157,-0.0469763017,0.0712154720,-0.0198212388,-0.0186995777,-0.0013197277,-0.0080302214,-0.1668308914,-0.0551030932,-0.0340336257,-0.2207788897,-0.1134245943,-0.0368296639,-0.0386156361,-0.0245014600,-0.0767643449,-0.0416870491,-0.0121005267,-0.0263303489,-0.0324659881,-0.0190417226,-0.0385437281,-0.1575312676,0.0031728688,-0.0086999046,-0.0206336549,-0.0508535131,-0.0176966344,-0.0108190643,-0.2505629325,-0.0170414091,0.2436612808,-0.0457984313,-0.0149785186,0.0738961211,-0.0245655580,-0.0298681450,-0.0180266808,-0.0240169472,-0.0324130338,-0.0336158119,-0.0200869901,-0.0830713942,-0.0257909053,0.1030265319,0.0912660572,-0.0181579125,-0.0221389523,-0.0272486218,-0.0334312661,-0.0170461069,-0.0481029349,-0.0536374160,-0.2182824835,-0.1072274356,-0.0170154224,-0.0232255333,-0.0142605016,-0.0887767156,-0.0521683462,0.0168048815,-0.0438799639,-0.0442201345,0.0384052002,-0.0335289492,-0.0207939047,-0.0339470669,0.0216066258,-0.3824755994,-0.0265590058,-0.0504917678,-0.0124626773,-0.0289575509,-0.0411446828,-0.0114575678,-0.0176593215,-0.0100157384,0.0336027294,0.0274845445,-0.0196111974,-0.0095734249,-0.0831775239,-0.0232700473,-0.0200073090,-0.0045763966,-0.0268901050,-0.1591302055
-0.0515400746,-0.0386788845,-0.0639446163,-0.0392945376,-0.0365476163,-0.0367210551,0.1833990281,-0.0148323018,-0.0151737454,-0.0122436382,-0.0452901000,-0.1117686950,-0.0186310532,-0.0307358724,-0.0436582783,-0.0689165249,0.1442582569,-0.0452433653,-0.0520225384,-0.3488322093,0.2144805266,-0.0768052551,0.0789950396,-0.0332129852,-0.0495230603,-0.0317810529,-0.0052378327,-0.0187356376,-0.0417902441,-0.0288574866,-0.0572312368,-0.1284828224,-0.0161033363,0.2331167417,-0.0372762608,0.5233580641,0.0517307167,-0.0770878525,-0.0254786268,0.0180525230,-0.0277847615,-0.0257703975,-0.0314889105,-0.2003685824,-0.0481982026,-0.0505860789,-0.0151941292,-0.0244927382,0.0189372883,-0.1946497625,0.0677183978,-0.0662215016,-0.0080039895,-0.0197298514,-0.0521759692,-0.1436571999,-0.2682328916,-0.4862359035,-0.0287988417,-0.0363838688,-0.0057030400,-0.0005970746,-0.1214544286,-0.0136699275,-0.0567633702,-0.0193041473,-0.0335950350,0.2053313117,0.0070199954,-0.0269435457,0.1395703451,-0.0264494274,-0.0252007558,-0.0944374934,0.1777549666,-0.0240116464,-0.0309686598,-0.0170441553,-0.0273687584,-0.2818613941,-0.4317083598,-0.0248094596,0.0162716064,-0.0552635538,-1.1242750234,-0.0470683782,-0.0095690922,-0.0297167393,-0.0415798522,-0.0039726309,-0.0199969860,-0.0456158390,-0.0298868397,-0.0483192588,-0.0637035146,-0.2591221604,-0.0546473980,0.0153052819,-0.0228697980,0.0046532275,-0.0292771416,-0.0480274695,-0.1005125912,0.0181185547,0.1307729381,-0.0423276882,0.2160247855,0.0137250455,0.0022261918,-0.0240161872,-0.0422718057,-0.0327239880,-0.0317591179,-0.0218003527,-0.0182945949,0.0453157023,-0.0388967127,-0.2654048559,0.4291210527,-0.0476439054,-0.0370450525,-0.0170536641,-0.0371375144,-0.0375451031,-0.0405371562,-0.0242932391,-0.1797351280,-0.0994237371,-0.0353415415,0.1625691184,-0.0378109485,0.0756749213,-0.0154019644,0.0236501885,-0.0268216007,-0.0280372458,-0.1390046935,-0.0426250135,-0.0173090799,-0.0245967675,-0.0243507877,0.1198045784,-0.0597128920,-0.0699752320,-0.0354983638,-0.0537673065,-0.0374431330,-0.0374126306,0.1381694876,-0.0077023069,-0.0894629033,-0.3134176746,-0.0274693932,0.3560167633,-0.0037888466,-0.0126165117,-0.0235436584,-0.0216088355,-0.0511196769,-0.0820866996
0.0019466904,-0.0361019463,-0.0490707739,-0.0340179835,-0.0130318649,-0.0306053684,-0.0320538509,-0.0392686921,-0.0171144090,-0.0006732562,-0.0178339611,0.0543251043,-0.0258797347,-0.0710866324,-0.0546947661,0.1234900674,0.1838837591,-0.0619742151,-0.0543959709,0.0274901760,0.1333616882,0.0639224351,-0.0372435782,-0.0603983654,-0.0602244079,-0.0490370973,-0.0271330236,-0.0338470321,-0.0337131369,-0.0509893328,-0.0162990331,0.0250797523,-0.0262653186,-0.4679421161,-0.0257590659,0.0127603080,-0.0764168600,-0.0391798205,-0.0301250900,-0.1978896717,-0.0145196662,-0.0357226687,-0.0294618352,0.1000289801,-0.0471178287,-0.0282699729,-0.0323281884,-0.0312569786,-0.0651221515,-0.0675966088,-0.0836287723,0.2475840139,-0.0315262582,0.0004719821,-0.0226445416,-0.2413494126,-0.3394978105,0.2656747350,-0.0313530284,-0.0206482884,-0.0442860303,-0.0200220167,-0.1017652794,-0.0456290282,-0.0452168169,-0.0464464872,-0.0317553876,0.0290705632,-0.0147031456,-0.0468548212,0.0697329184,-0.0396515283,-0.0532953677,-0.0019897832,-0.1035656561,0.1248599949,-0.0314871336,-0.0285251874,-0.0320012831,-0.0812632853,0.4802101042,-0.0578015762,0.0348228033,0.1119791345,0.6337831037,-0.0300706851,-0.0412885672,-0.0326234331,-0.0122539636,-0.0399461835,-0.0211253833,-0.0220965595,-0.0326017928,-0.0395797839,-0.0320405963,-0.1560915306,-0.0465644001,-0.0283037111,-0.0258023984,-0.0300395095,-0.0225776714,-0.0343163079,0.0807155488,-0.0311535034,0.0473167188,-0.0266388596,0.0489376405,-0.0785767799,-0.0206386588,-0.0352861918,-0.0352164008,-0.0334378866,-0.0264706898,-0.0322841700,-0.0074404375,0.0110177001,-0.0266030524,-0.2894947036,-0.0340209352,-0.0350335899,-0.0163030714,-0.0338291370,-0.0327692448,-0.0332613613,-0.0272932903,-0.0404516404,-0.1813045468,-0.1458546886,-0.0427998274,-0.0075001149,-0.0453495494,-0.0276659164,0.0795170595,-0.1205726916,-0.0515583326,-0.0580077255,0.0671385307,-0.0341661324,-0.0458414207,-0.0376900615,-0.0951248510,0.0735728869,-0.0329126503,0.1713995651,-0.0407290892,-0.0337758696,-0.0324832909,-0.0271575160,0.1833415216,-0.0163755980,0.1953044186,0.4078561930,-0.0449564555,-0.4649574094,-0.0835149554,-0.0320139646,-0.0231441586,-0.0361247304,-0.0726198540,0.1280630309
-0.2086929383,-0.0297649619,-0.0276623092,-0.0295883093,-0.0053112213,-0.0328232946,-0.0347740513,-0.0418123066,-0.0255690921,-0.0357388820,-0.0564863571,-0.1060749373,-0.0346916312,-0.1110546736,-0.0337758013,-0.0379844273,0.1002317211,-0.0032267640,-0.0679434398,-0.0562614222,0.1312247612,0.0728303995,-0.0430913782,-0.0277191747,-0.0447963915,-0.0240184908,-0.0614208085,-0.0393797805,-0.0404699729,-0.0356445546,-0.0190028101,0.0349809536,-0.0235518813,-0.6058807237,-0.0205813707,-0.1866004371,-0.2654941304,-0.0638033348,-0.0283022139,0.0338480347,-0.0229728073,-0.0477810250,-0.0226729280,0.1363900934,-0.0191229310,-0.0167044471,-0.0385735168,-0.0254908438,-0.0519431143,0.3378304883,0.0748846612,0.0150820986,-0.1366087140,-0.0035434499,-0.0372853287,-0.4986963371,0.1846482932,0.3733716750,-0.0302767995,-0.0326096385,-0.0182621657,-0.0361154933,-0.0721437641,-0.0485250037,-0.0343493753,-0.0411330930,-0.0302192714,-0.0694872181,-0.0951726349,-0.0421194309,-0.0297217320,-0.0400334333,-0.0382216002,-0.0408559313,-0.0111883771,-0.0617435126,-0.0034331234,-0.0317509800,-0.0225752950,-0.0043585794,-0.2800231643,-0.0487001076,-0.0150583366,-0.1766801047,-0.0641006783,-0.0306038197,-0.0489923639,-0.0224560628,-0.0112713677,-0.0423720519,-0.0448977484,-0.0370988032,-0.0241038317,-0.0526876960,-0.0346944172,-0.0242925771,-0.0299586204,-0.0644867526,-0.0395469231,-0.0337187290,-0.0284559464,-0.0392216754,0.0369915022,-0.0596544437,-0.4422409788,-0.0387775602,-0.0665750307,0.0822113872,-0.0381737322,-0.0412946710,0.0040072329,-0.0124222051,-0.0357193072,-0.0285351080,-0.0281183260,-0.0404600497,-0.0239158185,-0.0808351688,0.0404971269,-0.0297650075,-0.0272383727,-0.0367436498,-0.0308401185,-0.0182612750,-0.0347961878,-0.0404112743,-0.0607888005,-0.0279682936,-0.0251867737,0.0216351206,-0.0274065252,-0.1080260588,0.0134373716,0.0107151383,-0.0128635895,-0.0289245489,0.1365119759,-0.0226319757,-0.0068196219,-0.0219132638,-0.1032950049,0.0764495807,-0.0442737083,0.0136113714,-0.0307093528,-0.0540981830,-0.0477772839,-0.0306483254,-0.2128574384,-0.0366647280,-0.0030950104,0.1096269615,-0.0240782069,-0.1013416315,-0.0453693987,-0.0558370304,-0.0512033802,-0.0425939768,-0.0665655613,0.0174496373
-0.0839959925,-0.0560739023,-0.0247055210,-0.0373010612,-0.0271286983,-0.0394312445,-0.0357131943,-0.0060929183,-0.0249710700,-0.0200953617,-0.0359023322,0.0946397638,-0.0348790564,-0.0982583533,-0.0597256547,-0.2809952037,-0.1820724844,-0.0584194890,-0.0503901193,0.5040449583,0.1265969330,0.0878687795,0.0181476561,-0.0223215390,-0.0265825799,-0.0091513322,-0.0618086204,0.0128176671,-0.0044163249,-0.0266615613,-0.0211044070,0.1126237794,-0.0226382763,0.2364061142,-0.0151639491,-0.0578999060,-0.1273603594,-0.0179843586,-0.0086822337,0.1271036162,-0.0378497726,-0.0298942215,-0.0589383581,0.4275930468,-0.0236729586,-0.0492683748,-0.0356097650,-0.0251238087,-0.0336928916,-0.1022923697,0.0974275164,-0.1516622031,-0.2184538299,-0.0472161976,-0.0222444363,0.0325493754,0.0418801553,-0.5177510950,-0.0041668120,-0.0310585364,-0.0899827263,-0.0618891333,-0.0971652831,-0.0410962377,-0.0371540852,-0.0570481336,-0.0308651150,-0.0683386897,-0.0758107744,-0.0273962106,-0.3578318556,-0.0189665051,-0.0279381165,-0.0172718203,-0.0824717004,-0.0860589659,-0.0758914622,-0.0413187648,0.0165502048,-0.0218017689,-0.1383411939,-0.0285537650,-0.0668677255,-0.3974131770,-0.2764548527,-0.0168895252,-0.0374947208,-0.0193137385,-0.0589877780,0.0027065408,-0.0472813362,-0.0170735979,-0.0261026493,-0.0118146602,-0.0161731709,0.0095851876,-0.0249195023,-0.0645896533,-0.0311285621,-0.0623429090,-0.0293421298,-0.0245370167,0.1651916081,-0.0387507354,0.0900026969,-0.0365233438,-0.1034851692,0.1078306785,-0.0364083101,-0.0254445792,-0.0211002964,-0.0259192305,-0.0396563957,-0.0331690430,-0.0427471754,-0.1578325889,-0.0326084210,-0.3299093498,0.0043600334,-0.0115181537,-0.0168393997,-0.0432682230,-0.0224000770,-0.0562729654,-0.0341827845,-0.0401224035,-0.0927794713,-0.0344589011,-0.0431344149,-0.2724760157,-0.0487868727,0.1661528589,-0.0747647694,-0.0595908692,0.0117810816,-0.0231958119,-0.1655617245,-0.0399225329,-0.0249961181,-0.0344536827,-0.1314154661,-0.1216300484,-0.0276101491,0.5071801002,-0.0329773570,-0.0479613303,-0.0334131297,-0.0235607831,-0.0317893312,-0.0438830493,-0.2204830753,0.0241344821,-0.0250080970,-0.0077755934,0.0073944440,-0.0197545792,-0.0496499803,-0.0198868683,-0.0086815661,-0.0303351433
-0.0741505206,0.0030204591,-0.0076758649,-0.0072194739,-0.0259474786,-0.0063957767,-0.0849614712,-0.0241658759,-0.0206752853,0.0121838437,-0.0258331269,0.0578589005,0.0126653351,-0.0937711444,-0.0275240882,0.1414390061,0.0794445543,-0.0222982579,-0.0161534200,-0.0254480657,0.0513455082,-0.2106011086,-0.0683912503,-0.0076697784,-0.0051258795,-0.0191120386,0.0275107002,0.0022510151,-0.0023071216,-0.0090377206,-0.0350315923,-0.0827527794,-0.0073467484,0.0410271798,-0.0204616263,0.0339774316,-0.1720934989,-0.0268101515,-0.0169653534,0.0033884590,-0.0244676416,-0.0127615276,-0.0238063282,0.3965523147,-0.0200423985,-0.0090828323,-0.0026787624,-0.0207833672,-0.0247022698,-0.2633166740,0.1986884079,-0.2055266062,-0.0751080229,0.0054668720,-0.0230322562,0.7959876762,-0.1475917133,-0.2023475319,-0.0056624849,-0.0159722784,-0.0290166103,0.0110287537,0.0618413667,0.0101269486,-0.0334544080,-0.0096813315,-0.0060807847,0.0411789181,-0.0237687768,-0.0120131019,-0.2294965338,-0.0013140078,0.0070244656,-0.0098901702,0.0067095634,-0.0939715868,-0.0257106833,-0.0095360970,0.0230477789,-0.1269264601,0.0088754181,-0.0306896941,0.0043843455,-0.0001755987,0.2688891430,-0.0227168665,0.0038375791,-0.0088918648,-0.0037829620,-0.0086860233,-0.0057139418,-0.0119037224,-0.0282144167,-0.0471516491,-0.0191042352,-0.0460685947,-0.0156235207,-0.0093038008,0.0087180023,-0.0182004469,-0.0171315119,0.0044216966,0.1882370907,-0.0027973889,0.0710237443,0.0040945597,-0.1077027444,0.0941106314,-0.0062351859,-0.0051859014,-0.0278472262,-0.0094302318,-0.0030158670,-0.0213707892,-0.0099080771,-0.1824153724,0.0018204238,0.0281973383,-0.0142563068,-0.0292812536,-0.0082744498,-0.0047564105,-0.0092155391,-0.0138683082,-0.0070250674,-0.0039957841,0.0376567106,-0.0172473412,0.0126106514,-0.0248837367,-0.0252372110,0.0518336602,0.1071598924,-0.0449316417,0.0082997537,-0.0098131325,0.0308775552,-0.0106406878,-0.0080852322,-0.0165208194,0.1055903171,0.1539679397,-0.0081730677,0.0316031942,-0.0207321063,-0.0384279091,-0.0118101290,0.0085833051,0.3990880639,0.0020987278,0.0118725960,0.3152584683,-0.0198850801,-0.2686609761,0.0154280906,-0.0295189721,0.0054960391,-0.0082897772,0.0096149306,0.0631099640
0.0018536093,-0.0111757766,0.0027916306,-0.0164194183,-0.0047844413,-0.0099339246,0.0384216614,-0.0229510539,0.0164314457,0.0274222120,0.0208306940,0.0296641692,-0.0084971189,-0.0062728595,0.0012274201,-0.0986228231,-0.0030563397,0.0125002551,-0.0090550107,-0.5260068441,0.2685477710,0.0679909855,0.0083985004,0.0033493508,0.0020379623,0.0121992497,-0.0072056270,-0.0043727601,0.0123993838,-0.0099411155,-0.0008065389,-0.0318403369,-0.0327731362,-0.3240323994,-0.0022836228,0.0253582926,-0.1592239107,0.0047715756,-0.0014191698,-0.1316785962,0.0017480258,0.0208748557,-0.0124949086,-0.2840892779,0.0063201515,-0.0022479603,0.0283099224,-0.0062448734,-0.0243266979,0.3010009887,-0.0013400920,-0.4581329157,0.0200095859,-0.0271599225,0.0180222764,-0.5276676399,0.0766980885,0.2605562594,-0.0035277585,0.0068793180,-0.0266664153,-0.0272916918,0.0150663815,0.0025702995,-0.0020251722,-0.0123352331,0.0015097990,0.0031466220,-0.0037886330,-0.0073677451,0.0166922138,0.0142702413,-0.0151012741,0.0282146616,-0.0426814067,-0.0632923092,-0.0102302356,-0.0053521759,0.0209689008,-0.0264136036,-0.1667938795,0.0004104649,-0.0351112707,-0.0290667966,-0.1505909992,0.0092465561,-0.0070432449,-0.0221919775,0.0168836788,-0.0017807690,-0.0125645582,-0.0197676014,0.0010529611,-0.0133598758,0.0018232981,-0.0512299286,0.0080987621,-0.0090076628,0.0010179469,-0.0351129693,-0.0006878923,0.0006459218,-0.0660447565,-0.0332420973,-0.3141020658,-0.0249183842,-0.0988495683,-0.0175206978,-0.0201484003,-0.0028522612,0.0155514679,0.0006031482,-0.0130220027,0.0015059125,0.0015030576,0.0472237874,0.0026523915,-0.1019308437,-0.1058381962,-0.0015968696,0.0019785123,-0.0090526109,-0.0034098296,-0.0076120072,0.0010634645,-0.0127358665,-0.0007552236,-0.0173487451,0.0139064686,-0.0875143680,-0.0153222458,-0.0401219277,0.1435831825,0.0042331117,0.0228530146,0.0025880214,-0.2261262568,0.0120004695,-0.0056002669,-0.0038282174,-0.0431597748,-0.0209972067,0.0179791475,-0.4243758225,0.0055806985,-0.0017144243,-0.0025450849,0.0044580167,-0.2799084808,-0.0204172241,-0.1011009622,-0.2034971569,0.0038283960,-0.0190758640,0.0159692379,-0.0173689717,-0.0155818121,0.0114918097,0.0083463840,0.2448269753
-0.0397235919,0.0378844363,0.0157781122,0.0292151173,0.0252401264,0.0204079642,0.1419217878,0.0066402373,0.0367914258,0.0003891488,0.0180851699,0.1869872592,0.0118776917,0.0059996610,0.0196899828,0.0124008564,0.0215623751,0.0446303207,0.0384881800,0.2642207014,-0.1483640032,-0.0631098333,0.1055352557,0.0059739812,0.0264241414,0.0340389590,0.0364878883,0.0442063163,0.0033046413,0.0004206283,0.0009232187,-0.0307270236,0.0237005505,-0.1695624860,0.0204842995,0.1852297027,0.0787376430,0.0128740610,0.0145853758,0.0262068611,0.0235299978,0.0199354585,0.0496363331,0.0459415599,0.0204463288,0.0063450521,0.0373552321,0.0311108357,0.0202967942,0.0005090936,-0.2740234494,-0.0922751764,0.0443181426,0.0164405962,0.0349824111,0.0605783769,-0.3103561793,-0.2259057854,0.0242402185,0.0209648112,0.0262276642,0.0350507205,0.0062827796,0.0288051574,0.0303347168,0.0169388308,0.0177558476,0.0629900294,0.0636887825,0.0262754529,-0.0286233187,0.0172332322,0.0265271155,0.0091241601,0.0819549736,-0.0346542355,0.0113123173,0.0286387133,0.0340549902,0.1363058054,0.0573246536,0.0224488694,0.0041625344,-0.0595288004,0.2556004204,0.0264915458,0.0031686543,0.0078116205,0.0081168105,0.0238465629,0.0232734841,0.0307466069,0.0300498472,0.0345350522,0.0061001113,0.1366822972,0.0115955209,0.0259798342,0.0119057231,0.0214385624,0.0289356477,0.0125260654,0.3227349687,0.0227996577,-0.0739133704,0.0255109068,-0.1169608637,-0.0316599210,0.0209139900,0.0291803501,0.0246623625,0.0459540669,0.0305393083,0.0150507515,0.0262259777,0.0302995501,0.0209502163,0.0525542398,-0.0457589590,0.0150647945,0.0403853373,0.0318783315,0.0237686105,0.0228449731,0.0186180907,0.0074369171,0.0553172399,0.0162284043,0.0239826957,0.0871125125,0.0310782611,0.0834443365,0.2247210539,0.1143814761,-0.0019614018,0.0185675346,0.1281248439,0.0336999909,0.0147767312,0.0251081423,0.0518396366,-0.2769484784,0.0356192969,0.4166811973,0.0460402889,0.0278587244,0.0298859402,0.0254711497,-0.0471616379,0.0258648892,0.1383624715,0.1966021076,0.0245364537,0.1906244455,0.0199212660,0.0401559996,0.0263960506,0.0179111501,0.0228193380,0.0084448756
-0.0137141379,-0.0146941359,-0.0209787644,-0.0264375076,-0.0245988104,-0.0222493204,-0.0355761665,-0.0122963528,-0.0461886391,-0.0860782827,-0.0113255038,-0.0453519936,-0.0115475296,0.0268434343,-0.0131194984,-0.0162234050,-0.0332499783,-0.0239076625,-0.0043763887,-0.0877774136,-0.2583088735,0.0226246099,-0.0843705581,-0.0371685120,-0.0303052969,-0.0133468589,-0.0477308593,-0.0155024397,-0.0053249031,-0.0064694584,-0.0120901160,-0.1316494890,-0.0246350282,0.1641106587,-0.0143654920,-0.0725166840,0.1884487717,-0.0085617500,-0.0053484828,-0.0370833911,-0.0245763850,-0.0120133585,-0.0406179305,-0.3102228685,-0.0301589791,-0.0089282641,-0.0390467792,-0.0065105673,-0.0130119611,-0.0679753413,-0.0206513940,-0.1864495022,0.0394349772,-0.0498552282,-0.0072090325,-0.4180645958,-0.3566462410,0.3217444681,0.0034495982,-0.0305476926,-0.0016505123,-0.0472813925,-0.2085453956,-0.0305353801,0.0222041044,-0.0231312752,-0.0195670041,-0.0316336548,-0.0001554614,-0.0146049005,-0.2797304252,-0.0193895812,-0.0219031734,-0.0595544532,-0.0228835350,0.0842387709,-0.0342184145,-0.0100944929,-0.0253106892,0.1060581548,-0.0244733069,-0.0187233422,-0.0399477646,-0.0129998170,0.2271096929,-0.0373433722,-0.0245603957,-0.0385493454,-0.0633753070,-0.0126318635,-0.0268105992,0.0050052154,0.0002985913,0.0044714486,-0.0090477687,0.0197765656,-0.0228156578,-0.0413301453,-0.0078753293,-0.0138648508,-0.0062876834,-0.0013349482,0.0225165334,-0.0083658451,-0.2992072094,-0.0148541897,-0.0530298124,-0.0349613444,-0.0431765706,-0.0175070342,-0.0343122641,-0.0141227149,-0.0099792152,0.0063244324,0.0035311430,-0.1156454666,-0.0137406336,-0.0337485611,-0.1097970764,0.0188236821,-0.0104439312,-0.0294572856,-0.0030146341,-0.0117494694,-0.0435044880,-0.0176615288,0.0024241525,0.0342403625,-0.0339012888,0.0301454457,-0.0291979939,-0.0488523602,-0.1378186763,-0.0309250431,-0.0187647269,-0.0145678179,-0.1235641448,-0.0220920845,-0.0063865188,-0.0125186679,0.0168268063,0.0758030786,-0.0245554505,-0.3261167243,0.0037262728,0.0119177233,0.0014629841,-0.0365868771,0.0492408843,-0.0083592740,-0.2011036366,-0.2485680206,-0.0014301017,0.0341487854,-0.0038786049,-0.0010645349,-0.0175641587,-0.0099096010,-0.0281510345,-0.0207039358
0.0787949795,-0.0119675838,-0.0192012726,-0.0381844013,0.0104807515,-0.0140547353,0.1806726650,0.0068909158,-0.0079096174,-0.0245840503,-0.0040887621,-0.2407902589,-0.0301468412,0.0633468928,0.0210689126,-0.0484208377,0.0010375303,-0.0023413094,0.0071695257,-0.1237966315,-0.2186564163,0.0530497021,-0.0220577231,-0.0133186143,-0.0157345663,0.0039719560,-0.0042254099,-0.0144923170,-0.0169302600,-0.0263166597,-0.0281645059,0.0123895940,-0.0288003858,0.0754541962,-0.0221494856,-0.0557359800,-0.0810103656,0.0101266521,0.0177153270,-0.0446685133,-0.0136190295,-0.0170802498,-0.0049445609,-0.0768033047,0.0032475371,-0.0190918216,-0.0175436617,-0.0134021578,0.0013245883,0.0423389723,-0.1465853939,0.2081175793,0.0708871783,-0.0447666775,0.0062538559,-0.4079450377,0.1293786740,0.2821010917,-0.0093008652,-0.0153495517,0.0344089631,0.0100819902,-0.0170745043,-0.0227115939,0.0007694555,-0.0182812630,-0.0196472515,0.0235768476,0.0034046067,-0.0137342148,0.0346678076,-0.0238535611,-0.0078038636,-0.0393352803,-0.0491009042,0.0913610888,0.0039607369,-0.0186481345,0.0060364598,0.1806958523,0.0483724037,-0.0300841656,0.0286897316,0.0853062711,-0.3099211205,-0.0116360042,-0.0174339540,-0.0146060706,-0.0108696361,-0.0158822960,-0.0168797480,-0.0222446773,0.0057432645,0.0043927052,-0.0180413816,0.2364059215,-0.0147531601,-0.0077238309,-0.0115826419,-0.0019459225,-0.0044074661,-0.0044649961,-0.2907237054,0.0070611208,-0.0057801495,-0.0179777065,0.0330250638,-0.1070069323,-0.0095814731,0.0003633859,0.0039888545,-0.0002966228,-0.0156611638,-0.0183534395,-0.0030294839,-0.1136164419,0.0000839445,0.0138356587,-0.0887589279,0.0512315067,-0.0091747859,-0.0221061654,-0.0232801124,-0.0024361107,-0.0184501600,-0.0008010022,0.0254096053,0.0119531947,-0.0130669787,0.0759579849,-0.0016406256,0.1433684924,-0.0691940555,-0.0714417772,-0.0064590938,-0.0248374959,-0.1243631867,-0.0286747552,-0.0105573940,-0.0208213187,0.0023172574,0.1109725899,-0.0123826056,-0.0447124571,-0.0034594887,0.0247673593,0.0076966143,0.0064594085,0.0160271941,-0.0266922283,0.0696151061,0.1335178046,-0.0131670156,0.2291572957,-0.0146641200,0.0097856287,-0.0314796184,0.0027321563,-0.0229622459,0.0267934123
0.0083418402,-0.0112525819,-0.0229738166,-0.0412593276,-0.0369553722,-0.0227518156,0.0153786308,0.0079589206,-0.0264305820,-0.0397661639,-0.0458813231,0.1057865150,-0.0220980419,0.0172598171,-0.0217897370,-0.2041182481,-0.1019698376,-0.0627581829,-0.0145257119,-0.3498503155,-0.0537150985,-0.0582116053,0.0686257031,-0.0122611556,-0.0363381782,-0.0419143373,-0.0794244651,-0.0114825580,-0.0109104038,-0.0100566941,-0.0336942123,0.0164690146,-0.0230776363,-0.0774380212,-0.0253181846,-0.1351550766,-0.1958068773,-0.0304569969,-0.0278100481,-0.1254583627,-0.0045076444,-0.0382373911,-0.0509977693,-0.2002598422,-0.0207441213,-0.0485854500,-0.0386689499,-0.0172247931,-0.0179039721,0.0098981501,-0.0653854902,-0.1937030457,-0.0204128214,-0.0345043750,-0.0327076675,0.0670621186,-0.0495398051,-0.0585438009,-0.0210099552,-0.0265259856,-0.0453316220,-0.0270463949,-0.1118744058,-0.0426036301,-0.0410031961,-0.0348784301,-0.0323561773,-0.0333388489,-0.0463887731,-0.0191462889,-0.0083703047,-0.0211000710,-0.0414136759,-0.0956650781,0.0110449166,-0.0816576609,-0.0285753859,-0.0297168178,0.0218314415,-0.2428614783,0.1043425485,-0.0152542586,-0.0196164192,-0.1864562765,-0.0312716161,-0.0389075570,-0.0379045095,-0.0361122254,-0.0701428293,-0.0104566610,-0.0325121799,-0.0092377324,-0.0318421344,-0.0280756529,-0.0201645959,-0.0274698352,-0.0264073215,-0.0246614202,-0.0362988122,-0.0549864243,-0.0386939702,-0.0212353875,-0.6055097467,-0.0071483569,0.1108894798,-0.0378681593,0.1452521748,-0.0165856971,-0.0044398847,-0.0344305102,-0.0308469648,-0.0166529696,-0.0282822719,-0.0147814459,-0.0138698059,-0.0972988964,-0.0130212885,-0.0208999191,-0.2220010600,0.0042590302,-0.0421108503,-0.0132506903,-0.0156996109,-0.0256664516,-0.0376291930,-0.0195930900,-0.3042774679,-0.1112451396,-0.0407008281,-0.1194963844,-0.0160523216,-0.1456664008,-0.0515923032,0.0452317643,0.0240653398,-0.0278290671,0.0916834757,-0.0390420397,-0.0210592699,-0.0266171515,-0.1322110309,-0.3385546469,-0.0438344750,-0.1361751403,-0.0295023041,-0.0283482485,-0.0608784907,-0.0157766786,0.1093731417,-0.0061987604,-0.0094395448,-0.0171003464,-0.0417837456,-0.0966538863,-0.0130744951,-0.0176349957,-0.0526587636,-0.0182161388,-0.0037595945,-0.0746314109
-0.1265656711,-0.0362376838,-0.0332893635,-0.0394892029,-0.0178681524,-0.0234894914,0.1448154645,-0.0341468521,-0.0045493428,-0.0297723441,-0.0352579060,-0.3571817448,-0.0253491122,-0.0019739655,-0.0518043366,-0.1908736351,-0.0148178069,-0.0410862048,-0.0512805843,-0.5592654619,0.2462506856,-0.0753889137,-0.0560876188,-0.0201883709,-0.0510906420,-0.0369863743,-0.0029462003,-0.0343419630,-0.0442707198,-0.0324476304,-0.0380757071,-0.1648774446,-0.0418328224,0.0884142550,-0.0338684633,0.1010224911,0.0894812430,-0.0406914428,-0.0519832593,-0.2511940981,-0.0393193377,-0.0241230293,-0.0255990425,-0.1094351167,-0.0399081138,-0.0371694930,-0.0067871805,-0.0438966726,-0.0099885993,-0.0922552003,-0.0538276018,-0.1127742811,0.0154399974,-0.0385128238,-0.0505656219,-0.4417662153,-0.2540537826,0.0458538766,-0.0254074051,-0.0335777081,-0.0408460111,0.0117455034,-0.0168526058,0.0002807990,-0.0507507905,-0.0252505976,-0.0119013448,0.0942588536,0.0228151866,-0.0077878596,-0.2042169909,-0.0331408835,-0.0386954953,-0.0773596162,-0.1346009157,-0.1292507811,-0.0289727347,-0.0379507022,-0.0467601043,0.0203064920,-0.3541932459,-0.0263438562,-0.0168264085,0.0980375964,-0.2210783405,-0.0175791162,-0.0149797970,-0.0326937884,0.0111635625,-0.0466604121,-0.0212084226,-0.0422110307,-0.0320335419,-0.0294331648,-0.0287644377,0.1437210268,-0.0406901917,0.0232738704,-0.0287793852,-0.0521598360,-0.0245984410,-0.0324423989,-0.0868421578,0.0052210870,-0.2363168481,-0.0418616771,-0.0703062143,-0.1798075770,-0.0032307318,-0.0384372344,-0.0317940145,-0.0389114219,-0.0261102663,-0.0303987828,-0.0339347520,-0.1036711250,-0.0334558827,-0.1750960325,0.1913044212,-0.0432536665,-0.0347339973,-0.0151855149,-0.0324341368,-0.0401480010,-0.0626607539,-0.0435704036,-0.2321576128,-0.1163667047,-0.0353817223,0.0234237380,-0.0386849168,0.0715756944,-0.0340286600,0.0783494788,-0.0232513209,-0.0493532107,-0.1920421784,-0.0252042256,-0.0524560944,-0.0396275082,0.0329854745,-0.1644857933,-0.0233096182,-0.0030999057,-0.0497017995,-0.0839112525,-0.0610037998,-0.0438335858,0.2587392023,0.0217823561,-0.0264272152,-0.2638426107,-0.0408522851,-0.0139112252,-0.0756316498,-0.0543406246,-0.0247166627,-0.0382475399,-0.0297474937,0.0030375279
-0.1039224753,-0.0278276384,-0.0300264460,-0.0217697139,-0.0389877658,-0.0260470990,-0.0377076523,-0.0322766648,-0.0447642494,-0.0586749300,-0.0307523702,-0.0757504005,-0.0387731854,0.0009033494,-0.0352811721,-0.0899330405,0.0069365931,-0.0350611493,-0.0351266040,-0.9793514361,-0.2434265608,-0.0104108914,-0.0371830000,-0.0383966490,-0.0393792506,-0.0277612034,-0.0068652164,-0.0323691558,-0.0326811419,-0.0224334398,-0.0471050342,-0.0449278686,-0.0213928921,0.0299821993,-0.0209414884,-0.0807601117,0.0377419789,-0.0255077297,-0.0381286604,-0.1079965938,-0.0355895160,-0.0456445602,-0.0398843715,-0.0762628808,-0.0343902379,-0.0318600529,-0.0432812225,-0.0420688598,-0.0359245951,0.4848406244,-0.0637326674,0.2772303413,-0.0154472174,-0.0207148096,-0.0602929686,0.2106477956,0.0863487311,0.2829293126,-0.0375570809,-0.0326741830,-0.0368138020,-0.0237160695,-0.0714598046,-0.0164129721,-0.0374364716,-0.0234429992,-0.0257081777,-0.0181935674,0.0361825324,-0.0173156615,-0.3579564448,-0.0263781273,-0.0635566589,-0.0267279868,0.0105312734,0.1057142678,-0.0226214125,-0.0237648657,-0.0233686582,-0.2865558062,0.2997475335,-0.0399429420,-0.0269916427,-0.0447770743,-0.2038309658,-0.0306811262,-0.0246203357,-0.0198098738,0.0356229212,-0.0354244996,-0.0228195534,-0.0500462189,-0.0290636839,-0.0304287577,-0.0271003909,-0.0770398728,-0.0421393530,-0.0233863685,-0.0235089140,-0.0530011051,-0.0188090395,-0.0220788834,-0.3667082220,-0.0213169188,0.0091046105,-0.0331380513,0.0503220207,-0.0480519262,-0.0294482507,-0.0249447371,-0.0262029986,-0.0261517196,-0.0333680755,-0.0284002186,-0.0287177231,0.0808349489,-0.0447101747,-0.1097746765,-0.1069604486,-0.0144396123,-0.0350534066,-0.0166082867,-0.0312063202,-0.0274547778,-0.0375215853,-0.0427580330,-0.1097623580,-0.0518551388,-0.0219966928,-0.2237547978,-0.0344192009,0.0274373327,0.4120804074,-0.1575318003,-0.0266357454,-0.0169558469,0.1638505951,-0.0466732455,-0.0344860847,-0.0345756249,-0.0041456961,-0.0137075758,-0.0126114333,-0.1285329851,-0.0279116573,-0.0642563545,-0.0321448393,-0.0058704016,-0.1386863573,-0.0198075811,0.0871364272,0.4905303472,-0.0450170158,0.0510605034,-0.0405860301,-0.0364763990,-0.0285873133,-0.0410811912,-0.0615736649,0.0238991214
0.0759097423,-0.0059906283,-0.0319645753,-0.0258869918,-0.0231210946,-0.0156782543,0.0997995637,0.0030682539,-0.0174762278,-0.0303781442,-0.0115647488,-0.0269138480,-0.0394358095,0.0145570177,-0.0151813973,-0.0596344429,-0.0304067744,-0.0198875912,0.0059527378,-0.7603669051,-0.1667133749,0.0010366369,-0.0072421937,-0.0362847069,-0.0207560852,-0.0185472470,-0.0475551992,-0.0077952345,-0.0346095544,-0.0264419338,-0.0359569337,0.0807491416,-0.0288130825,0.1083271527,-0.0399459381,-0.0347726718,-0.0950146264,-0.0141083461,-0.0016746817,0.0592418045,-0.0195894683,-0.0118472266,-0.0346444110,0.2837536785,-0.0203495995,-0.0274595164,-0.0358484204,-0.0084577221,-0.0364556902,-0.1654104937,0.1855530957,-0.0063688352,-0.0520027165,-0.0270392985,-0.0205807842,-0.4950658635,-0.0473427721,0.2000819388,-0.0127801437,-0.0160379245,-0.0420038583,-0.0359925076,-0.1000049548,-0.0214690276,-0.0246758661,-0.0179385577,-0.0434415642,-0.0222580229,-0.0407522906,-0.0208870574,-0.0363493503,-0.0232738577,-0.0417073580,-0.0136194667,-0.0788026689,0.0636453390,-0.0130781572,-0.0380258836,0.0011266239,-0.0919436406,-0.1120189692,-0.0356905141,-0.0724229207,0.0713613038,-0.5750288811,-0.0414522906,-0.0330492070,-0.0298238032,-0.0382562591,-0.0243931765,-0.0337905042,-0.0283073226,0.0023107787,-0.0024261677,-0.0151940981,0.0616317231,-0.0090783563,-0.0544805793,-0.0218313281,-0.0273085462,-0.0269172729,-0.0157563515,-0.2371428201,-0.0500939496,-0.2410208130,-0.0361069748,-0.1095085289,-0.0305998574,-0.0207085846,-0.0153535483,-0.0347242562,-0.0109586121,-0.0202301501,-0.0065367990,-0.0085237526,0.0824259340,-0.0447400177,-0.2501506611,0.2447903821,0.0671050772,-0.0136540532,-0.0385578911,-0.0202316094,-0.0276555548,-0.0163629666,-0.0310297270,-0.0360833218,-0.0749354298,-0.0109235733,-0.0275806935,-0.0320035329,0.0042857319,-0.0859807768,-0.1988880670,-0.0107523351,-0.0243657973,-0.0064604442,-0.0370912396,-0.0111768325,-0.0184555673,-0.0112345694,0.1200534386,-0.0191970314,-0.1922836589,-0.0039383451,0.0010871368,0.0175766222,-0.0224444273,0.1703694455,-0.0386290451,0.0242920571,0.2328390422,-0.0257462231,0.0555432977,-0.0333573500,0.0069138594,-0.0385629948,-0.0259449681,0.0105420142,-0.0657780397
-0.0535615840,-0.0129876465,-0.0135091383,-0.0228062360,-0.0128898361,-0.0146929151,-0.1069202618,-0.0087876705,-0.0070383733,-0.0077435586,-0.0171602018,-0.0078893601,-0.0036183396,-0.0610681545,-0.0359333112,-0.4269294151,-0.1509527870,-0.0157042040,-0.0217331972,0.0104896962,-0.0223616100,-0.0619775418,-0.0573237533,-0.0171493736,-0.0155501651,-0.0262228856,-0.0349081183,-0.0042622916,-0.0052250824,-0.0208790590,-0.0017864749,0.1415321621,-0.0010697762,0.0362604684,-0.0118445638,-0.2640736985,0.0433670303,-0.0147852621,-0.0079387258,0.2090457384,-0.0197792326,-0.0075134791,-0.0096721957,0.0798602343,-0.0098423923,0.0012198477,-0.0095324361,-0.0178872616,0.0062089642,0.0037027208,0.0102308581,-0.3021930599,0.0511725131,-0.0047809787,-0.0268666891,-0.1078480090,-0.1182892470,-0.0952336048,-0.0168862705,0.0065272020,-0.0292436125,-0.0148607586,-0.0189823582,-0.0227298545,-0.0196939232,-0.0160988233,-0.0179861084,0.0025967299,0.0546043382,0.0079559045,-0.4509038064,-0.0154530834,-0.0101587064,-0.0847283678,-0.0070677605,-0.0335891821,-0.0238330937,-0.0128550115,0.0063780769,-0.0570663359,0.0504335677,-0.0018933284,0.0208925064,-0.1161856255,-0.0178663988,-0.0164382452,-0.0074802469,-0.0110151161,0.0494797063,-0.0066549869,-0.0187168169,-0.0153727876,-0.0303151854,-0.0334571094,-0.0130095412,-0.1456558616,-0.0056115835,-0.0127463500,-0.0080696377,0.0219010944,-0.0117651671,-0.0135184079,-0.0233084642,0.0002016453,-0.1669705002,-0.0149983425,-0.1460942388,-0.0706023655,-0.0216144800,0.0065679570,-0.0197710682,-0.0204783389,-0.0068364219,-0.0201683260,-0.0361221454,0.0621061437,-0.0081711166,-0.0336142557,-0.3418733567,-0.0191323622,-0.0112299775,0.0011430573,-0.0206422104,-0.0173531254,-0.0326094074,-0.0195001845,-0.0620086827,-0.0230172573,-0.0198999972,-0.1885183641,-0.0111924395,0.0382712403,0.1314222639,0.1396967466,0.0188627992,-0.0141098838,0.0584569116,-0.0144099011,-0.0064989709,0.0092220288,-0.1119828265,0.0589559524,-0.0191470140,-0.3211090255,-0.0203136391,-0.0347753399,-0.0320423529,-0.0008590397,-0.1214532661,0.0031281236,-0.3186389864,0.2032385653,-0.0120486572,0.2902954167,-0.0138906504,-0.0109754389,0.0015420065,0.0157794449,-0.0096199530,0.1468525268
-0.0022366977,-0.0097451117,0.0195333979,0.0160873545,-0.0058355925,0.0151192082,-0.1389077438,-0.0002652665,-0.0006368330,-0.0270354147,0.0031269269,0.0717529850,0.0013738140,0.0048898070,-0.0125842733,0.0745937482,0.0043761434,-0.0313068237,0.0095172011,0.1301463265,-0.1282078428,-0.1347918744,-0.0178282757,0.0320178378,0.0001782780,0.0036442042,-0.0011140487,-0.0049194025,0.0040684369,-0.0140698655,-0.0120914161,0.0270795702,0.0019597619,0.0939056916,-0.0112871910,-0.1123856519,-0.0889794290,0.0123150730,-0.0011299873,0.0417815281,-0.0083245900,0.0011938734,-0.0049032438,-0.1272099883,-0.0210251301,-0.0227404663,-0.0249451761,-0.0189983149,-0.0174799655,-0.2982482740,0.0081430783,0.0201260242,0.0060909933,0.0220094407,-0.0136275573,0.0877606539,0.2427926849,-0.1416270726,0.0049236199,-0.0109461147,0.0014864031,0.0050550707,-0.0366535639,0.0146370864,-0.0046270672,0.0026403695,-0.0008030987,0.0041141956,-0.0112247294,-0.0028767028,-0.0401647962,0.0136304352,-0.0056350624,0.0053037956,0.0078441841,0.0485818182,-0.0143674565,-0.0213215169,0.0126258630,-0.0865278294,0.2340849822,0.0055010452,0.0221565702,0.0029591076,-0.0597270666,-0.0085322000,-0.0085882705,0.0037367852,-0.0100762860,0.0114944334,0.0271724963,-0.0018474393,-0.0056621994,-0.0064233884,-0.0028638590,0.0139835550,0.0077491311,0.0077109255,0.0017062191,0.0102938426,-0.0018384536,-0.0006702527,-0.0512780346,0.0187369882,0.1523873233,-0.0037758389,0.0868529033,0.0313509085,0.0237696464,0.0033490552,-0.0104341344,0.0087332977,-0.0002112765,0.0076625296,-0.0102086216,-0.0655501728,0.0059114653,0.1402924268,0.0011268864,0.0159867403,-0.0059324884,-0.0098412854,0.0027152717,-0.0065627108,-0.0087403972,-0.0196521523,-0.0018220739,-0.0085803815,-0.0029439175,-0.0095115732,-0.0114208613,-0.0324638101,0.0137684671,-0.0572723561,0.0050461734,-0.0091383305,0.1881385179,-0.0043538349,-0.0053596251,-0.0157730426,0.0047411881,0.1238715897,0.0049178254,0.0654033826,-0.0033504704,-0.0121048026,-0.0214606634,-0.0116818771,-0.0668833637,0.0046555185,0.0566065966,0.0105838796,0.0029338996,0.0006429883,0.0074118836,0.0063763951,-0.0005794691,-0.0095834978,0.0142580730,0.0203951760
0.0592292794,-0.0190486897,0.0069188331,0.0039135917,0.0091292691,0.0116309375,-0.0455951410,0.0234127957,-0.0067930651,-0.0100449100,0.0152941806,-0.0637858092,0.0077853338,0.0222961061,0.0358395140,-0.0199934202,0.0152250408,0.0099970487,0.0011062589,1.1018368858,0.0100083415,-0.0149082120,0.0262433701,-0.0104093123,0.0228673646,-0.0121138138,-0.0096967370,-0.0091295850,0.0198584695,0.0225543104,-0.0086526220,0.0056232091,-0.0008710899,0.3984543881,-0.0038651573,0.2438983842,0.1593111505,0.0394717560,0.0170844044,0.0072563065,-0.0073955930,0.0009579868,-0.0062412654,-0.0022672173,0.0164533842,-0.0099931932,-0.0054791582,-0.0103012446,-0.0059983116,-0.1440806506,-0.1821338056,-0.0333521640,0.0037908564,-0.0153368582,0.0041213883,0.2397411664,0.1286430198,-0.1394323862,0.0078018654,-0.0070968187,-0.0102768443,-0.0087687602,0.0110096184,-0.0329181047,0.0111298664,-0.0233065958,-0.0305067612,-0.0131225737,0.0331174419,-0.0037130439,0.4243041027,-0.0059785836,-0.0008747869,0.0649342170,-0.0074279352,0.0133953880,0.0287900344,0.0012812635,-0.0017634553,0.0308784773,0.2467294143,-0.0030519500,-0.0023183427,0.0340274155,-0.1099078509,-0.0221699836,-0.0208151668,0.0025032348,0.0296756204,-0.0022270375,-0.0285281469,0.0063186414,0.0144547832,0.0221063217,0.0046643021,-0.0081492785,-0.0080627259,-0.0052394733,-0.0083837681,-0.0257360391,0.0033263490,0.0092373140,0.1292744641,-0.0147250339,0.0025480482,0.0118465482,0.0353023517,-0.0226077626,-0.0025495852,0.0099572251,-0.0006062958,0.0298218876,0.0066387671,-0.0205500890,0.0323062929,0.0002304663,0.0086980360,0.1533077335,-0.0949438870,0.0399414499,0.0118447853,0.0035502992,-0.0271051150,-0.0110347659,-0.0044390085,0.0054032113,0.0018471098,-0.0044031761,-0.0171258959,-0.0240912981,-0.0007539650,0.0053193837,0.0594070731,-0.0576508725,-0.0040352388,0.0077645028,-0.0106617095,-0.0091501805,-0.0026881925,0.0056702623,-0.0117695069,0.0605222661,-0.0057031015,0.4673892249,-0.0002111885,0.0295031002,0.0139096081,0.0048359074,0.3068955969,-0.0192432701,0.0456655946,-0.0121005239,-0.0079193687,-0.0499473268,0.0177546245,0.0100715869,-0.0210216894,0.0081839505,0.0228628475,0.1087040789
0.0634087312,0.0173068520,0.0252015297,-0.0327169391,0.0189653126,-0.0058748553,-0.2480623764,0.0154226454,0.0018541714,-0.0058232185,0.0407633491,0.1946203578,0.0112851264,0.0311473243,0.0254420626,0.0222789456,0.0021526439,-0.0076323048,0.0442791409,0.2714689002,0.0817786991,-0.0309576055,0.0245207959,0.0105428039,0.0309912632,0.0154116036,0.0036866154,-0.0148746496,0.0232450803,-0.0059883970,-0.0102377520,0.0051639654,-0.0151865978,0.1067872242,0.0128337792,0.0080448279,0.0528808178,0.0611073643,0.0346001655,0.0030436419,0.0257090548,-0.0043347121,-0.0255642511,0.0462158486,0.0252999033,-0.0019412943,0.0079568119,0.0384132155,-0.0202595838,0.3262626029,0.2597219856,0.1134554343,0.0235785504,0.0061311123,0.0225203655,-0.3116635015,0.1794885953,-0.1085330157,0.0258282251,0.0055771166,-0.0069940176,-0.0084409999,0.0392400559,-0.0109759128,0.0296553982,0.0018535147,0.0026095066,0.0004986150,0.0521241841,0.0057075862,-0.1223240640,-0.0027765473,0.0164101985,0.0672225891,-0.0675146779,0.1035346233,-0.0015920647,0.0158637299,-0.0007189676,0.0643657265,0.1779812454,-0.0408013490,0.0038061508,-0.0136241181,0.2945714059,0.0002334272,-0.0065492078,-0.0040725162,0.0154384338,0.0025133174,-0.0104155469,0.0000514855,0.0337990651,0.0212679102,-0.0075057518,0.1310485567,0.0110573395,0.0140361955,-0.0046484766,-0.0314326442,0.0117760109,0.0293630104,0.1836694443,-0.0072529119,0.0077751234,-0.0140636690,0.0365748618,-0.0165636031,-0.0006013519,0.0065647423,0.0230698568,0.0261829403,0.0228697746,0.0016091176,0.0235390775,0.0330390845,-0.0117200125,0.2370580266,0.1048214160,0.0549978150,0.0073974815,-0.0042106795,-0.0142686443,0.0014255260,0.0072462235,-0.0009216188,-0.0275432040,0.0130746692,0.0146125765,0.0269255858,0.0422102324,0.0561265146,0.0534026638,-0.0125485770,-0.0204379993,0.0232598087,-0.0873163498,0.0055527175,0.0098891417,-0.0178487350,0.0276312041,0.0921266011,0.0008987058,0.3426906282,0.0419411430,0.0275825639,0.0407739251,0.0100412688,0.2361562946,0.0052994433,0.1571649640,-0.0243070024,0.0079584063,0.4090191857,0.0375802986,0.0025714026,0.0036625376,-0.0110441586,0.0120049846,0.1828129860
-0.0620772284,-0.0063515475,-0.0086952724,-0.0057548405,-0.0378359920,-0.0108345284,0.0149660577,-0.0084527058,-0.0018207460,-0.0454075829,-0.0249777580,-0.1818014868,-0.0167824188,-0.0188478692,-0.0339021277,0.0466413049,-0.0086588827,-0.0288289724,-0.0193801327,0.0983691099,0.0031040111,-0.0746897007,-0.0195287237,-0.0246653116,-0.0190914212,-0.0192294930,-0.0110924085,-0.0197428582,-0.0091460518,-0.0276926600,-0.0091737602,-0.0159355174,-0.0033695397,-0.1302531763,0.0003638461,0.0118730190,-0.0332277208,-0.0328447965,-0.0199438025,-0.1187947059,-0.0123332928,-0.0085655324,-0.0013574954,-0.2088017793,-0.0068627168,0.0068618387,-0.0357043681,-0.0263180884,-0.0065748863,0.1651382921,0.0831483675,0.0860521202,-0.0872661392,-0.0053033142,-0.0229273730,0.3260182445,-0.1986713895,0.2798966251,-0.0168046215,-0.0146618411,0.0500531167,-0.0254481134,-0.0680089640,-0.0130627924,-0.0096021067,-0.0099661630,0.0011860031,-0.0891564115,-0.0184091141,-0.0234599704,-0.3547633853,-0.0025896506,-0.0231551849,-0.0230199387,-0.0440404619,0.0443550242,-0.0436810055,-0.0132923825,-0.0390983535,0.0588003237,-0.5614696660,-0.0177250068,0.0005250551,0.0167854230,0.2849383655,-0.0284528930,-0.0325430287,-0.0068104541,-0.0267926445,-0.0072809794,-0.0081019498,-0.0309143116,-0.0191909450,-0.0059235335,-0.0057063595,0.0483087566,-0.0143655527,-0.0066986193,-0.0104322055,0.0143278229,-0.0128040747,-0.0095225888,0.0984161025,-0.0111169319,0.1379904448,-0.0225849064,-0.0698205825,-0.1706270735,-0.0065168346,-0.0155487415,-0.0333112357,-0.0195397449,-0.0117503239,-0.0148750848,-0.0391425264,-0.1339928783,-0.0019823577,0.2040176415,-0.3655600198,0.0224917214,-0.0146398690,-0.0191146961,-0.0092256651,0.0047107326,-0.0082116044,-0.0254336054,0.1182865776,0.0589236349,-0.0228818341,0.0203715936,-0.0207045939,0.1169133334,0.2214638828,0.0796625224,-0.0154697731,-0.0242157274,-0.0374225859,-0.0402967838,-0.0092605499,-0.0343895052,0.0714217157,0.0248687797,-0.0093317025,-0.0305913757,-0.0147603949,-0.0224062745,-0.0312437855,-0.0131969811,-0.0948383177,-0.0129783244,-0.0255417930,0.0107607138,-0.0217899355,0.1058119569,-0.0377906326,-0.0089849122,0.0130746565,-0.0255462521,-0.0147972364,-0.0200152717
-0.0356706530,-0.0104637117,-0.0042425126,-0.0193373568,-0.0023051961,-0.0245732237,0.0572668989,-0.0241793937,-0.0107062654,-0.0404127407,-0.0132695969,-0.0669628771,-0.0161141680,0.0052042536,-0.0252571031,-0.1288814697,-0.0419046776,-0.0318567780,-0.0079603177,-0.0860151339,-0.1349056379,0.0423935135,-0.1284108075,-0.0034869550,-0.0336632526,-0.0113571079,-0.0434491487,-0.0174823722,-0.0103478805,-0.0012437016,0.0040882546,0.1491541412,-0.0093327132,0.3771364443,-0.0149268925,0.0319676266,0.1910230619,-0.0122403126,-0.0213912319,-0.0089300862,-0.0076970327,-0.0129474777,-0.0220040177,0.2698372144,-0.0042928491,-0.0067110110,-0.0130454112,-0.0224355450,-0.0261833905,0.1077347739,-0.3850814294,0.0340444238,-0.0154823125,-0.0527931977,-0.0119713502,0.1793432178,0.2757757475,-0.0031490543,-0.0178403023,-0.0097236093,0.0172221286,-0.0306241682,-0.0771189788,-0.0379928977,-0.0411874361,-0.0097454902,-0.0271536694,0.0687424925,-0.0027008854,-0.0028439663,0.3245101159,-0.0327881602,-0.0208389204,-0.0495446379,0.1057789433,0.0067722199,-0.0338567314,-0.0119524222,-0.0048874015,0.0456553712,-0.2838149274,-0.0141970619,-0.0111979433,-0.0899186351,-0.1398850069,-0.0444618649,-0.0129590723,-0.0192634484,-0.0143200555,-0.0172889137,-0.0178908001,-0.0133193126,-0.0162160700,-0.0136282693,-0.0278803616,-0.0274378285,-0.0037666558,-0.0073705880,0.0003613313,-0.0252312468,-0.0129756228,-0.0126752531,0.0195908768,0.0029762192,-0.0239527186,-0.0209324042,-0.0217394515,-0.0955265079,0.0032934671,-0.0249951165,-0.0199921969,-0.0160494449,-0.0297048750,-0.0056087853,-0.0099798263,-0.1366111581,-0.0179194141,-0.2149927803,0.2226687599,-0.0072592530,-0.0210776040,-0.0161103287,0.0013438741,-0.0081550000,-0.0076746472,-0.0144217117,0.0333014592,-0.0478465165,-0.0252472091,-0.0377012839,-0.0149930714,0.0398531344,0.0426842861,-0.0468191490,-0.0077313624,-0.0030739352,-0.2388420064,-0.0274261371,-0.0416647469,-0.0140287421,-0.0941388460,-0.1199109736,-0.0075688907,-0.0388760191,-0.0172608154,-0.0139788260,-0.0178336053,0.0015303657,-0.1541541876,-0.0043342369,0.1714257457,0.1836919075,-0.0065145220,0.1970754811,-0.0189270149,0.0020433407,-0.0126205320,-0.0373707125,0.0001830155,0.0316974144
-0.0163681782,-0.0083458593,-0.0359130596,-0.0288204461,-0.0247676972,-0.0298654883,0.0390407816,-0.0184283269,-0.0071909015,-0.0331998697,-0.0208024046,-0.0136888771,-0.0339226511,0.0301918871,-0.0259334261,-0.0104427932,-0.0815508373,-0.0547129693,-0.0150661968,-0.3568864355,0.0337236401,-0.1000944813,-0.1286167096,-0.0116192279,-0.0132171047,-0.0139950587,-0.0502461709,-0.0320954001,-0.0285612023,-0.0172493537,-0.0039973562,-0.0026147606,-0.0186297993,0.3949571886,-0.0116222303,0.1459467883,0.0211086113,-0.0055446563,-0.0102255288,-0.0185152142,-0.0240902905,-0.0113538339,-0.0450631832,-0.0229790881,-0.0313268268,-0.0422586686,-0.0283716678,-0.0237436358,-0.0392275837,0.1931146057,-0.3105273957,-0.0625715347,-0.0004829738,-0.0382490703,-0.0277783896,0.1570697886,-0.0333047068,-0.2051352677,-0.0361143594,-0.0295002361,-0.0295865040,0.0063209262,-0.0554739501,-0.0491869153,-0.0239436039,-0.0495727502,-0.0135729953,-0.0012372262,0.0167390604,-0.0252855465,0.0350847235,-0.0092127225,-0.0144146451,-0.1242162987,0.1177522565,-0.0597306293,-0.0276710107,-0.0203234677,-0.0199541009,-0.1880798281,0.0552669999,0.0343784104,-0.0320433245,-0.1258658882,-0.4126579047,-0.0425705476,-0.0328755366,-0.0249000100,-0.0507587582,-0.0240571846,-0.0310510857,-0.0256345012,-0.0202431716,-0.0357835792,-0.0229427852,0.1276523906,-0.0205655320,-0.0420203806,-0.0107290705,-0.0443371755,-0.0211044606,-0.0422871701,-0.2299633712,-0.0227687775,0.0839537657,-0.0387317538,-0.0143800414,0.1115762490,-0.0266871207,-0.0189905665,-0.0247635654,-0.0428801886,-0.0192135764,-0.0275240108,-0.0227167620,0.1017269162,-0.0255549968,-0.2883441160,0.1701333911,-0.0681687870,-0.0250120531,-0.0396325557,-0.0286614691,-0.0394470330,-0.0230487949,-0.0113023930,-0.1040746443,-0.0637024334,-0.0232654124,-0.0184994909,-0.0288435489,-0.0841946680,0.0663772392,0.0307012636,-0.0159339050,-0.0292455379,-0.0690196954,-0.0401245020,-0.0150982434,-0.0320120543,-0.0582743924,-0.2744922945,-0.0124706940,0.0669995960,-0.0260241519,-0.0467292658,-0.0347957578,-0.0152898426,-0.1454811955,-0.0130856024,0.0088453391,0.2057783334,-0.0170311167,0.0393166516,0.0087755296,-0.0067324043,-0.0656825155,-0.0345147841,-0.0229882242,-0.0366347666
-0.2028428920,-0.0380167573,-0.0415464550,-0.0249381088,-0.0220168740,-0.0231691188,0.4177137499,-0.0728618559,-0.0086349606,0.0103752936,-0.0625313721,0.1454681571,-0.0425556123,-0.0069933404,-0.0356131868,0.0906461709,-0.0292917309,-0.0279277500,-0.0505306324,-0.3460807151,-0.0548248398,0.0778628995,0.0069023725,-0.0344413811,-0.0339791224,-0.0535101326,-0.0082207509,-0.0610525524,-0.0353055170,-0.0467135446,-0.0015278113,0.1171479786,-0.0090973141,0.0300599560,-0.0149824419,0.2135574281,0.0181836640,-0.1263495092,-0.0796406559,-0.1120133009,-0.0196155091,-0.0396456823,0.0051775254,-0.0270318054,-0.0431051828,0.0037980956,-0.0272274195,-0.0426164186,0.0172678152,0.0391673511,0.2142550773,0.2853513062,-0.1305783802,-0.0387482017,-0.0545023383,-0.1036857252,-0.1284374950,-0.1632967288,-0.0333152848,-0.0369885535,-0.0242222371,-0.0093856739,-0.0748570508,-0.0341384641,-0.0502401704,-0.0294745804,-0.0202182510,0.0429242068,-0.0224963065,-0.0137314530,0.1209942121,-0.0475992051,-0.0170818588,-0.0453039608,-0.0910973011,-0.0001227811,-0.0240316171,-0.0328108598,-0.0694105545,-0.1342913360,-0.0413742349,-0.0420826410,-0.0132964377,0.0092608827,-0.3356271685,-0.0080034543,-0.0071385379,-0.0189195250,-0.0161927257,-0.0332936736,-0.0082946907,-0.0454950802,-0.0467357962,-0.0434710605,-0.0340125038,-0.1038064442,-0.0465871920,0.0195032818,-0.0144103920,-0.0166735497,-0.0488576666,-0.0469452577,-0.0199266871,0.0021968586,0.0099580076,-0.0174489958,-0.0744455133,0.0719327502,-0.0108535378,-0.0258817854,-0.0126511493,-0.0469798499,-0.0277443838,-0.0330465253,-0.0440180565,0.0276638401,-0.0287089324,-0.0017403491,0.1460671354,-0.1104675616,-0.0289251564,-0.0154762103,-0.0281807438,-0.0265751140,-0.0127454295,-0.0320045232,-0.0628715963,-0.0025751227,-0.0032062118,-0.0749142494,-0.0488652505,-0.2473507461,0.0531099976,0.0552768051,-0.0441098152,-0.0193775694,-0.0162566963,-0.0275391648,-0.0470823532,-0.0375450106,0.0292987133,0.0198767477,-0.0227016455,0.0833957787,-0.0377324484,-0.0798977504,-0.0603610548,-0.0440081004,-0.0799872057,-0.0082448574,0.1373499707,0.0355416850,-0.0539963229,-0.0260656010,-0.0592260491,-0.0469802146,-0.0267127893,-0.0374955716,-0.0501310630,-0.1517056605
-0.0013625039,-0.0231350832,-0.0185126959,-0.0438499712,-0.0231341816,-0.0054076779,0.2270918818,-0.0262728742,-0.0314182889,-0.0382022775,-0.0367534318,0.1507916763,-0.0175227051,-0.0480222415,-0.0151133590,-0.0779708437,-0.0386124597,-0.0330790077,-0.0280923190,-0.0913860510,-0.3608423225,-0.1111319650,0.0074210060,-0.0404106168,-0.0313713330,-0.0108279592,-0.0092490760,-0.0422571258,-0.0302918852,-0.0227612906,-0.0426301026,-0.0809079232,-0.0257429396,-0.0271798018,-0.0461257484,0.2746625655,-0.0315165015,-0.0671622607,-0.0262479087,-0.1702898480,-0.0180715866,-0.0208099432,-0.0367628092,-0.3136010133,-0.0272045186,-0.0273843644,-0.0388954183,-0.0192971066,-0.0043807865,-0.0490199471,-0.1431784650,0.1464873300,-0.0529488231,-0.0764925884,-0.0059889973,-0.2658139445,-0.1753821613,-0.2600767736,-0.0109791193,-0.0390027382,-0.0708954265,-0.0472276381,-0.0013153150,-0.0348232421,-0.0206764127,-0.0170884264,-0.0240585181,-0.0248376229,-0.0830174244,-0.0285380896,0.2430670248,-0.0306061850,-0.0420992034,-0.0659749936,-0.0719330253,0.1260272802,-0.0124295959,-0.0233120345,-0.0306545913,-0.0876228534,0.1689678981,-0.0233287480,-0.0437369931,0.1537322186,0.7258299397,-0.0216762141,-0.0413100224,-0.0299152990,-0.0210805354,-0.0296116898,-0.0555955572,-0.0285853468,-0.0155199449,0.0015605140,-0.0187730960,0.1213484500,-0.0292898293,-0.0289921308,-0.0272297107,-0.0731732189,-0.0430784843,-0.0142894513,0.0739251497,-0.0014535226,0.0133450892,-0.0242372389,-0.1477905940,0.0425040614,-0.0302660047,-0.0328247605,-0.0404233266,-0.0354713492,-0.0205310579,-0.0380127878,-0.0243559321,-0.0535338746,-0.0327175953,-0.3843731804,-0.2282569858,-0.0500139312,-0.0229576178,-0.0236290876,-0.0295202484,-0.0167650118,-0.0263275883,-0.0229330419,-0.1331987723,-0.0173316990,-0.0241838594,0.0268169727,-0.0255369509,-0.0844830652,0.0723363933,-0.0911538292,-0.0313553432,-0.0242883091,-0.0893025074,-0.0439523776,-0.0217225204,-0.0320121153,-0.0132851646,-0.0425852663,-0.0210980023,-0.2048340626,-0.0081518904,-0.0164682443,-0.0182513142,-0.0217312592,-0.2226127339,-0.0281361179,-0.3867973719,-0.1433668658,-0.0357850578,-0.1432832312,-0.0561025597,0.0025881889,-0.0292431902,-0.0342556775,-0.0272087824,-0.1958751796
-0.0724197258,-0.0147376353,-0.0307296118,-0.0262135573,-0.0393882621,-0.0119469898,-0.1950278730,0.0028010467,-0.0298925844,-0.0549367365,-0.0116981176,-0.0365779671,-0.0043346793,-0.0292097468,-0.0295775957,-0.1757836724,-0.0212451491,-0.0758336756,-0.0109711497,0.3294832479,-0.0726292866,-0.0156239553,0.0735797304,-0.0305600597,-0.0292551871,-0.0311560030,-0.0613386580,0.0060439875,-0.0210161545,-0.0173323525,-0.0306196335,0.1774754391,-0.0122291094,-0.0749094708,-0.0236833751,-0.3615410898,-0.1275806578,-0.0486389466,-0.0071753510,-0.0605291291,-0.0180398226,-0.0100156568,-0.0174116308,0.1580397765,-0.0400312502,-0.0555492581,-0.0324429006,-0.0130487601,-0.0259724872,0.1818073514,0.1576307638,0.0501046742,0.0591504775,0.0018549452,-0.0217768212,0.3514234141,-0.1926620129,0.1489388773,-0.0036948082,-0.0304899009,-0.0509168841,-0.0407964131,-0.0053648064,-0.0252261295,-0.0031354485,-0.0114568354,-0.0074359930,-0.0634899382,0.0039631545,-0.0118006156,0.0280531658,-0.0146215866,-0.0186433972,-0.1064396918,0.1391869683,0.0923719971,-0.0325865161,-0.0346603192,-0.0037545122,-0.1097019897,0.0015802926,-0.0236474037,0.0509083996,-0.0684593897,-0.2105474936,-0.0318600532,-0.0159228103,-0.0106228172,-0.0758543861,-0.0092213727,-0.0028806042,-0.0102844573,-0.0097258722,-0.0181366834,-0.0344046960,0.0022654292,-0.0205049574,-0.0102638368,-0.0233758838,-0.0065427778,-0.0084054371,-0.0099952215,0.2825767028,-0.0000830077,0.0997646458,-0.0201616204,-0.2473838243,-0.0816559504,-0.0062210547,-0.0127479322,-0.0239204011,-0.0271764122,-0.0186212679,0.0016509440,-0.0234024178,-0.0619741050,-0.0077291033,-0.1621796791,-0.0796870693,0.0195060747,-0.0303167229,-0.0242204148,0.0037702480,-0.0104589744,-0.0304210151,-0.0157379257,-0.0727495199,0.0236934887,-0.0402827575,-0.0494496784,-0.0360680769,0.0910965160,-0.2922261439,-0.0929040590,-0.0042487397,-0.0150361959,0.1662145493,-0.0140494784,-0.0213184175,-0.0150942251,-0.0246300731,0.0426380356,-0.0396715084,-0.1445026593,-0.0101030742,0.0259950513,-0.0134192069,-0.0231447128,0.0034220497,-0.0087548408,-0.2539484279,0.0233950626,-0.0447304060,0.4532744437,0.0348283398,0.0365170653,-0.0294227815,-0.0048257204,-0.0223575246,-0.0703744291
-0.0484823322,-0.0044920610,0.0044338510,-0.0129658017,-0.0183983360,0.0007890248,-0.4103426150,0.0031371309,0.0056692874,-0.0047975471,-0.0203723843,0.1240221195,-0.0049014697,-0.0069662500,-0.0175955197,-0.0003643736,0.0426258255,-0.0116517847,0.0080027447,-0.3899674104,-0.1740609766,-0.0627518869,0.0583787187,-0.0065061036,-0.0226345867,0.0096009766,-0.0043990705,-0.0099139994,0.0110174062,-0.0278858632,0.0008557797,0.1740324019,0.0050091813,0.0925031994,-0.0047532300,-0.0173427149,0.1244084465,-0.0360223822,-0.0049588640,0.1266866005,-0.0201781321,0.0025573173,0.0125072883,-0.0115441297,-0.0056122578,-0.0251568227,0.0106712265,-0.0020348971,0.0192122038,0.1156596028,-0.0863141653,0.3814026371,0.0316683568,0.0232683797,-0.0109344535,0.0617952417,-0.1383775319,-0.5634697128,-0.0067543192,0.0010859308,0.0319625579,0.0168284100,-0.0264426784,0.0173232355,-0.0008385408,0.0012703129,0.0234954105,0.0163290097,0.0362640339,-0.0194080437,-0.4336782716,-0.0067148555,0.0052447264,-0.0376495694,-0.0362329366,0.0579993911,-0.0239688961,-0.0046136747,-0.0214815448,0.0933285144,0.3510732940,-0.0465894218,0.0489541593,-0.0205283556,0.3615205152,0.0046596334,0.0040932568,0.0098665915,0.0023873763,-0.0111047986,0.0213983980,-0.0027560743,0.0008644271,-0.0132399321,-0.0077268139,-0.0334658242,-0.0097126711,0.0232765486,0.0020949391,0.0356721312,0.0050319837,-0.0164138002,-0.1868173520,0.0217647132,-0.0111423685,-0.0051631313,0.0863325673,-0.1166805568,0.0015864447,-0.0123093817,-0.0018663759,0.0019568508,0.0085499235,0.0010750946,-0.0053773453,-0.0050285670,0.0162985902,0.1188245705,-0.1941886380,-0.0021211534,0.0093084548,0.0047286273,-0.0067787402,-0.0169450621,0.0007096213,0.0040646128,0.0765229098,0.0313865208,-0.0105610474,0.0342593895,-0.0117445760,-0.0230138782,-0.0498359666,0.0368337009,-0.0287907028,0.0059540381,-0.1428247108,0.0022050427,0.0080520766,0.0108348026,0.0430460803,-0.2494144767,0.0010159425,-0.1318472427,0.0019163060,0.0060387847,-0.0089280747,0.0048597196,-0.0624585594,0.0046091392,0.3978404967,0.0395436430,-0.0127685219,0.0924823203,-0.0042335976,-0.0004688346,0.0298351623,0.0010394968,0.0184281663,0.1047657043
0.0601457033,-0.0058262602,0.0313814996,-0.0012742311,0.0223328289,0.0004422818,0.1597461756,0.0099894473,-0.0060003719,-0.0070448686,0.0324355995,0.1859383821,0.0066799295,0.0026746035,-0.0027500632,0.0080463748,0.0284662003,0.0179357904,0.0343621383,0.3348027622,-0.0700852863,-0.0238866545,0.0838709500,0.0271207912,0.0232961646,0.0261386889,0.0330562228,0.0121578019,0.0016103107,0.0159028530,-0.0071111063,0.0246377411,0.0046711863,-0.0162520350,-0.0040463706,-0.4282316477,-0.0133873731,0.0288324748,0.0266672019,0.0801804636,0.0174427043,0.0074896458,0.0056457647,0.1139960669,-0.0003090554,0.0053002908,-0.0013892144,0.0097711407,0.0006343556,-0.0088347068,0.1188948799,-0.1089450893,-0.0303037298,0.0166176144,0.0097019323,-0.1254936594,0.0201535547,-0.0638865110,0.0038887183,0.0080674215,-0.0017334998,0.0146536983,0.0494726142,0.0278857471,0.0172563605,-0.0059154142,0.0042507035,0.0197481186,0.0095150867,0.0042838998,-0.3359809516,0.0019730313,-0.0084424255,0.0705213042,0.0683054590,-0.0475235270,-0.0162246142,0.0055807559,0.0139899242,0.1343303306,0.2416384286,0.0166179153,0.0263614719,0.0663042449,-0.0153094422,-0.0062598514,0.0062243160,-0.0034132414,0.0116275608,0.0172268263,0.0251778823,0.0098479725,0.0281771662,0.0105753727,0.0117458238,0.0940786081,0.0150803592,0.0101223390,0.0118769015,0.0114437157,0.0062110767,0.0116498296,0.1514283058,0.0223635902,0.0860019643,-0.0089263094,-0.0101698808,0.0010984636,0.0073538750,0.0088334507,-0.0025226652,0.0052148326,0.0030264184,0.0059227415,0.0040639005,-0.0194233125,0.0319010915,-0.0202450240,-0.1924587356,0.0323697372,0.0243198759,0.0160441985,0.0012924742,0.0070617019,-0.0127435225,-0.0081725186,0.0091437527,-0.0084292103,0.0076718429,0.0071367241,0.0101731908,0.0278311182,0.0747449143,0.0187840933,-0.0036498042,-0.0026822822,-0.0075997892,0.0080847785,-0.0032278763,0.0093221083,0.0315398335,0.0789668350,0.0108623867,-0.0477149962,0.0274359629,0.0141249611,0.0495102946,-0.0134851414,0.3644918577,0.0091670861,0.5072702467,0.1273054655,-0.0036011715,-0.1126695212,0.0255792867,0.0150081558,0.0168330526,0.0100379165,0.0245224045,-0.0556165644
0.0098668367,0.0323894174,0.0316095609,0.0258610884,0.0309014482,0.0265314531,-0.0926158194,0.0351580107,0.0029931988,0.0198506718,0.0382755165,0.1262125767,0.0478409890,0.0452117941,0.0381640453,0.0901891986,0.0552328878,0.0185176370,0.0472561172,-0.0149838538,0.0075093706,0.0222739794,0.0348496003,0.0372790029,0.0361106054,0.0401779729,0.0102639161,0.0226309485,0.0381176027,0.0209801887,0.0213056895,0.0540063767,0.0080333478,0.0692047696,0.0175418021,-0.0056137594,0.2040837977,0.0347978707,0.0130003103,-0.1416718024,0.0373590766,0.0009813612,0.0149521891,-0.0910507547,0.0124220827,0.0125493417,0.0248467716,0.0492020411,0.0352323824,0.1445446549,0.1084747006,-0.0328053602,0.0052736205,0.0324466588,0.0273145530,-0.0935008463,-0.0118851112,-0.1331799300,0.0232219514,0.0419055053,0.0111464096,0.0182827533,0.1033211649,0.0195176973,0.0213382253,0.0394293866,0.0297235870,0.0280311359,0.0012033175,0.0503260102,-0.2207642906,0.0205939249,0.0222974455,0.0099908876,-0.1036865658,0.0425477843,0.0347722877,0.0065202447,0.0154198143,-0.0288717816,0.0334383682,0.0145761127,0.0541447389,-0.0666379710,0.3608119948,0.0402357326,0.0208854189,0.0222518503,0.0255656812,0.0251921858,0.0272052453,0.0251330328,0.0288993685,0.0408557397,0.0131606234,-0.0781118552,0.0288912143,0.0447890628,0.0187672956,0.0372629188,0.0247744006,0.0320206701,0.2216554708,0.0327449556,0.1235217240,0.0099820074,0.1474898493,-0.0687476703,0.0268136379,0.0467694650,0.0132191333,0.0433229672,0.0359600286,0.0278945262,0.0260426088,-0.0043251156,0.0280426865,0.0815615831,0.0325958089,0.0048473689,0.0306176370,0.0308541894,0.0147747024,0.0288716973,0.0055266464,0.0466682198,0.0029064841,0.0588611751,0.0290559946,0.0355996228,0.0274614748,0.0000481839,0.0144300517,-0.0855363777,0.0265270186,0.0354698828,0.0524542831,0.0281770743,0.0275664335,0.0158385990,0.0369793604,0.2733458155,0.0246956770,0.2374671686,0.0230715502,0.0112162943,0.0306392861,0.0308906431,0.0912482492,0.0283486396,0.0515407663,0.2286486835,0.0320905848,0.0099896981,0.0415335539,0.0327093194,0.0209234660,0.0337793410,0.0359122982,0.0357443941
0.0120428529,0.0514724069,0.0429976670,0.0404964348,0.0361892921,0.0463569430,0.0738089087,0.0619709831,0.0459183150,0.0562864962,0.0482770702,0.0364500782,0.0562307103,0.0812585847,0.0620120774,-0.2592986778,0.0633078301,0.0305302349,0.0521406240,0.1098010176,0.0396111255,0.0834309905,0.0739761432,0.0536667756,0.0569187076,0.0500860851,0.0411383240,0.0496830531,0.0688677321,0.0413951609,0.0425337734,0.0275258590,0.0411424338,-0.1079281861,0.0644312089,0.1106047412,0.0472188084,0.0709826791,0.0358661815,0.0319002106,0.0419653388,0.0585487971,0.0513868323,-0.0553268124,0.0505478720,0.0481533309,0.0340528926,0.0514326941,0.0410289015,-0.1757540739,0.0619007383,0.1431224055,0.0833239087,0.0800499208,0.0686289355,0.2155872757,-0.0028278484,0.2883667784,0.0475605601,0.0540043189,0.0482108667,0.0428751675,0.0474620710,0.0572229050,0.0618791391,0.0533338190,0.0503324658,0.0417797849,0.0558832079,0.0640747454,-0.2048637029,0.0472830230,0.0596637491,0.0344016021,0.0686594514,0.0165169623,0.0460295370,0.0521904448,0.0551522814,0.0852600559,0.0974811921,0.0673018899,0.0688131012,0.0083941999,-0.3477380374,0.0459038784,0.0397820499,0.0443070516,0.0538544239,0.0475621236,0.0611522417,0.0466915331,0.0399540211,0.0710346812,0.0589459126,0.1327554664,0.0446033148,0.0465870965,0.0457748341,0.0564288446,0.0276070899,0.0476433157,-0.0741265796,0.0679504804,0.2053100761,0.0517584105,0.0268781600,0.0717198074,0.0501089360,0.0505452395,0.0681148096,0.0677198891,0.0431775928,0.0456422809,0.0571412195,0.0371507729,0.0480841623,0.0741235829,-0.0656807145,0.0789715077,0.0511911591,0.0542292439,0.0627306567,0.0327884859,0.0312594057,0.0443860832,0.0726879660,0.0384422289,0.0290420386,0.0607301542,0.0538967105,0.1469797885,0.0432187592,0.0689850955,0.0538017264,0.0577051726,0.0502271012,0.0616062684,0.0504446965,0.0363354945,0.0189235368,0.1605782352,0.0561428533,-0.2862426750,0.0623981011,0.0659824062,0.0485028642,0.0357583268,0.0152966532,0.0463114174,-0.0446638942,-0.0837762805,0.0563287484,0.0863714354,0.0503215651,0.0710636329,0.0451860189,0.0418133994,0.0623903982,0.0310987939
0.0163481488,-0.0165566387,-0.0131347874,-0.0162309526,-0.0345195874,-0.0054208192,-0.1595818120,-0.0271636501,-0.0230268936,-0.0275894307,-0.0339737564,0.2045345045,-0.0078432943,-0.0076145847,-0.0245413908,-0.0863806944,0.0823528231,0.0019326856,-0.0149161270,0.2567296662,-0.0587669308,0.0640241276,-0.0284049281,-0.0297384154,-0.0243597079,-0.0188471126,-0.0243912302,0.0035487422,-0.0061540383,-0.0003856523,-0.0242411416,-0.0470982878,0.0116561536,-0.0329296357,-0.0130584990,-0.0896203814,0.0494050818,-0.0315099840,-0.0273406103,-0.2725392453,-0.0166633055,-0.0288817664,-0.0137108998,0.2028972932,-0.0144092066,-0.0041908003,-0.0192146924,-0.0317729069,-0.0115956282,-0.0565554072,-0.2077269855,0.1862885734,-0.0747376776,0.0118398597,-0.0210307054,0.0356155157,0.1492520515,0.0047944553,-0.0171086371,-0.0298499249,0.0256887002,-0.0206986932,-0.0785606241,-0.0053157193,-0.0040252192,-0.0276317453,-0.0164320964,-0.0896842128,-0.0052170120,-0.0120295479,-0.0719671528,0.0005683520,-0.0248067505,-0.0711347884,0.0002848073,-0.0330675114,-0.0252118844,-0.0144586937,-0.0101054703,0.1086960668,-0.7259153904,-0.0036920482,0.0363232830,-0.0393884752,0.6058810293,-0.0113419788,-0.0129295870,-0.0126100305,-0.0083536706,-0.0306810450,-0.0175429245,-0.0193940996,-0.0181253876,-0.0052137074,-0.0070831716,-0.0212883762,-0.0109006475,-0.0216538623,-0.0101807203,-0.0018668462,-0.0099705821,-0.0272396570,0.3998788943,-0.0217495845,0.1585370523,-0.0294150915,-0.0479673317,0.0135514487,-0.0057031013,-0.0013235752,0.0037239786,-0.0200277491,-0.0176347986,-0.0126230358,-0.0200945631,-0.0086533429,-0.0011368625,-0.1201588320,0.0005050958,0.0142159677,-0.0341115679,-0.0333148420,-0.0205430277,-0.0130026940,-0.0038297040,-0.0186475532,0.0600971201,0.0250470876,-0.0299394736,-0.0541406241,-0.0326055811,-0.0250393809,-0.0802739783,0.0596777567,-0.0213831861,-0.0335039858,0.1755813318,-0.0172283579,-0.0110980338,-0.0122612684,-0.0110106208,0.0293021969,-0.0157836032,-0.2677240808,-0.0328475323,-0.0228257970,-0.0009317187,-0.0092574815,0.1275887709,-0.0182048217,-0.0485446221,0.0344996079,-0.0224183140,-0.3104087006,-0.0168571143,-0.0221823108,-0.0039628977,-0.0188471751,0.0016480678,-0.0369700739
-0.0601260232,-0.0326265852,-0.0328787211,-0.0011866552,-0.0194886153,-0.0193175837,0.0771744309,-0.0431071142,-0.0334002066,-0.0917747652,-0.0161727320,-0.2249502072,-0.0194360604,0.0262096740,-0.0378194436,0.0143521184,0.1179443544,-0.0665359837,-0.0138661185,0.1106905734,0.1442010905,-0.1282706257,-0.1534411417,-0.0233700821,-0.0315615377,-0.0122820184,0.0131098320,-0.0098287510,-0.0428835546,-0.0349626999,-0.0330480988,0.0656788124,-0.0122363022,0.1874286577,-0.0167181157,0.1604611479,-0.0828849797,-0.0055547967,-0.0019014678,-0.0122761641,-0.0205726448,-0.0303599447,0.0071942192,0.0827900509,-0.0317706342,-0.0284171184,-0.0253758913,-0.0290228253,-0.0225158886,0.2283568382,0.0108443343,0.1229550830,-0.0500105031,-0.0015298863,-0.0289705360,-0.0984837976,0.0842114546,-0.0787419919,-0.0243548111,-0.0080246717,0.0618586721,-0.0062394391,-0.1115984107,-0.0329115810,-0.0316917191,-0.0306792809,-0.0025402454,-0.0046149871,0.0513498385,-0.0017905385,0.3552854304,-0.0039293893,-0.0354456489,-0.0883161304,0.0327668624,0.0285632442,-0.0200752432,-0.0056960632,-0.0077323812,0.0131588515,-0.5308558524,-0.0012817104,0.0333202547,0.0798277373,0.0918810201,-0.0308654637,-0.0045483738,-0.0072393822,-0.0566170490,-0.0195917432,0.0057193493,-0.0222744331,-0.0249587376,-0.0368283196,-0.0111839364,0.0294427618,-0.0121848356,0.0079542423,0.0033311718,0.0058001060,-0.0237650855,-0.0167205779,0.2273374711,0.0128287644,0.1887906394,-0.0077898540,0.0877807902,0.0215671760,0.0222314902,-0.0212965150,-0.0458731630,-0.0419824408,-0.0167596518,-0.0286953600,-0.0498583418,-0.3198363156,-0.0152737021,0.0983769620,-0.0406004015,-0.0159867477,-0.0266666095,-0.0143459150,-0.0245205940,-0.0074727400,0.0015936859,-0.0054688926,0.0739054631,0.0276143361,-0.0285203326,0.2489773315,-0.0558777305,0.0041913955,0.0158690519,-0.1079320640,0.0194994484,-0.0007941421,-0.1741901386,-0.0157847465,-0.0232361913,-0.0141565786,-0.0038340011,0.2696734060,-0.0311170436,0.1293256889,-0.0334896691,-0.0461036525,-0.0367147673,-0.0453001093,-0.3330987625,0.0125366741,0.1172415964,-0.0397607249,-0.0357497032,0.4274298154,-0.0349718918,-0.0034574433,0.0244998301,-0.0190600266,-0.0063666518,-0.0052962490
-0.1599137061,-0.0223802598,-0.0310329419,-0.0297063445,-0.0415549180,-0.0343814093,0.2393184733,-0.0322386094,-0.0298118184,-0.0597403182,-0.0690002433,0.0147867277,-0.0280642923,-0.0542282641,-0.0371620944,-0.1476492866,-0.0644321341,-0.0452597937,-0.0343795330,-0.1827952011,0.1065469723,-0.0811159874,-0.0728687324,-0.0132031024,-0.0512444968,-0.0320752500,-0.0459674435,-0.0037902294,-0.0317422625,-0.0334790913,-0.0202570634,-0.1269070729,-0.0283777558,-0.0269233097,-0.0322797977,0.0138604389,-0.0606791754,-0.0831837889,-0.0239278108,-0.0417706012,-0.0445492246,-0.0271631901,-0.0131108805,-0.1297086460,-0.0323241546,-0.0098826760,-0.0188088740,-0.0289372699,-0.0448136957,0.0010790790,-0.3109817372,-0.1153985653,0.1137155476,-0.0281868563,-0.0559878989,0.0410724225,-0.0265129987,-0.2616359980,-0.0349382795,-0.0369409257,0.0051586307,-0.0188773589,-0.0039736660,-0.0276129702,-0.0394203168,-0.0433310920,-0.0115534094,-0.1644579014,-0.0709714546,-0.0507080023,-0.0831617389,-0.0361460789,-0.0306948196,-0.1296364715,0.1298287420,0.1352414437,-0.0218328579,-0.0318926681,-0.0410746478,-0.0521956981,-0.3107233235,0.0187094499,-0.0332963212,-0.0075393315,-0.1941638936,-0.0276458888,-0.0489475758,-0.0160375935,-0.0983262805,-0.0105696434,-0.0385507438,-0.0415149717,-0.0375599315,-0.0445607317,-0.0403682548,-0.0504430650,-0.0294940716,-0.0313067974,-0.0247397648,-0.0334786743,-0.0194126313,-0.0338776811,-0.1586796244,-0.0453977790,0.1315829286,-0.0256724310,0.0768809529,0.1384475339,-0.0301503619,-0.0210802565,-0.0355996202,-0.0321365698,-0.0256418658,-0.0116350635,-0.0146900937,-0.0493855496,-0.0206485041,-0.3830438710,-0.0001927387,-0.0705707978,-0.0276553296,-0.0378939616,0.0013894338,-0.0282602447,-0.0180171756,-0.0298989324,0.0250924909,-0.0867768949,-0.0133645973,-0.0262602727,-0.0249694590,-0.1459182107,0.2042861517,0.0721283912,-0.0028196046,-0.0282975923,-0.0140235759,-0.0280511516,-0.0220607269,-0.0344299765,-0.0027244209,-0.0590540039,-0.0391037264,0.0486301132,-0.0330078137,-0.0510665869,-0.0490286114,-0.0287076592,0.1185301451,-0.0437367214,0.0040379334,-0.1200273494,-0.0572365220,0.1853872907,-0.0153615260,-0.0482167462,-0.0334324167,-0.0375724634,-0.0510791658,-0.2314644527
-0.1010373529,-0.0344658268,-0.0118956599,-0.0200088783,-0.0382563948,-0.0377741769,-0.0996275078,-0.0383052324,0.0043753802,-0.0264309817,-0.0175326800,0.0317086315,-0.0163482507,-0.0160823372,-0.0381072066,0.2108261443,-0.1677765328,-0.0217186955,-0.0109009351,-0.3674069104,0.0540213267,0.0222845122,-0.1053275732,-0.0273665769,-0.0444430667,-0.0279431965,-0.0250424321,-0.0390484151,-0.0221009318,-0.0208088985,-0.0199032394,0.0633319195,-0.0185477973,-0.1451062506,-0.0119991645,0.2077925088,-0.0687187058,-0.0638372005,-0.0322828972,-0.0843130764,-0.0052211963,-0.0246780096,-0.0128711671,0.0416582952,-0.0328599984,-0.0279913276,-0.0472190036,-0.0230796191,-0.0070169705,-0.0639416464,-0.3083354894,0.0544936940,0.0214504288,-0.0020532359,-0.0401002224,0.1930736560,-0.1231607008,-0.0054673560,-0.0229596335,-0.0260512247,-0.0451690294,-0.0208412073,-0.0686936829,-0.0419646309,-0.0435601437,-0.0176140508,-0.0325493283,0.0151300545,-0.0382126220,-0.0068906459,0.0905813270,-0.0227876633,-0.0077686650,-0.0968099780,-0.0801900680,-0.0250082588,-0.0182652536,-0.0228722804,-0.0469517614,-0.1686003715,-0.2071531129,0.0226683038,0.0055623488,0.1140550063,-0.7052168980,-0.0083210766,-0.0124284019,-0.0282733753,0.0252008770,-0.0205160894,-0.0160960731,-0.0213958576,-0.0203980525,-0.0377058553,-0.0270036765,0.0710004261,-0.0406688904,-0.0213423352,-0.0120770272,0.0150164661,-0.0480839067,-0.0385746443,-0.2097946680,-0.0237966780,0.1171659316,-0.0257476122,0.0596474746,0.0133730966,-0.0195302744,-0.0246670776,-0.0133763134,-0.0408687505,-0.0327322176,-0.0180212452,-0.0005752836,-0.0103602528,-0.0255701158,0.0923223174,-0.0666417760,-0.0332958459,-0.0373884671,-0.0261685683,-0.0383295777,-0.0276947109,-0.0217459258,-0.0056913804,-0.1276136082,-0.0350735304,-0.0135747866,0.0722001257,-0.0201530595,0.2022939199,-0.1114564218,-0.0852877004,-0.0211314998,-0.0204860126,0.0762178681,-0.0384244562,-0.0315111439,-0.0371333631,-0.1024746232,0.0751185503,-0.0280904401,0.1662939981,-0.0281219494,-0.0352760537,-0.0182098721,-0.0353547270,0.0230205285,-0.0303688493,0.0971902055,-0.1753866791,-0.0371277105,0.1704981156,-0.0404689922,-0.0387433394,-0.0366890533,-0.0015557244,-0.0381912727,-0.0347384683
0.0306770112,-0.0427366018,-0.0055215457,-0.0347834899,-0.0246192994,-0.0289382566,-0.1049421019,-0.0126704609,-0.0536497737,-0.0912280418,0.0042110323,0.1399951762,-0.0068362392,-0.0400699497,-0.0102342900,-0.2575998287,-0.0348553491,-0.0557531057,-0.0000643300,0.3930475878,-0.1930186389,-0.0211677391,-0.1477820443,-0.0231456803,-0.0130926469,-0.0073030417,-0.0488867066,-0.0170224480,-0.0040065911,0.0051574855,-0.0412418489,-0.0552785310,-0.0158958366,-0.0195452034,-0.0294832711,0.1094088660,0.2466012912,-0.0027362305,-0.0061508998,-0.1838432869,-0.0226940838,-0.0128562976,-0.0283102660,-0.5849706132,-0.0422300544,-0.0549101558,-0.0421218445,-0.0156714904,-0.0146675768,0.3271744578,-0.3388853108,-0.4276875693,-0.0466509307,-0.0156665615,-0.0220254448,-0.1231599074,-0.3464963882,-0.4032665635,0.0027668222,-0.0509096154,-0.0990857194,-0.0244136323,-0.1226645805,-0.0419339400,-0.0062723081,-0.0266414555,-0.0369551902,-0.0588841947,-0.0426071357,-0.0145172292,-0.2767847006,-0.0082470976,-0.0490188751,-0.0023791762,0.0439162070,-0.0394218805,-0.0212482214,-0.0241866992,-0.0149272744,-0.3553538538,0.2094204455,-0.0242336655,-0.0517206930,0.3466920945,-0.0961810374,-0.0385712167,-0.0462446756,-0.0407621923,-0.0888778626,-0.0020814846,-0.0259973252,-0.0195296154,0.0004160461,-0.0169588067,0.0005536629,0.0254554953,-0.0200633968,0.0015798115,-0.0404371745,-0.0398257696,-0.0208404928,-0.0038580839,0.3084952853,-0.0247915237,0.1156796016,-0.0277389523,-0.0364494137,-0.0723541830,-0.0183877312,-0.0172758685,-0.0233269703,-0.0207488686,-0.0304942666,-0.0071204434,-0.0105674234,-0.0197969447,-0.0182446172,0.0442417781,-0.0364261109,0.0271907165,-0.0042867786,-0.0323207950,-0.0322439640,-0.0283663183,-0.0394213645,-0.0181341351,-0.1068045248,-0.0272868656,-0.0317637412,0.0144496528,-0.0025767699,0.0619571712,-0.1946749300,-0.1150168706,-0.0198633984,-0.0336108716,-0.1235990483,-0.0242813460,-0.0389665192,-0.0023285615,-0.1311915712,0.1303538724,-0.0470742649,-0.4732681347,-0.0092036120,-0.0034407092,0.0019208388,-0.0255684840,-0.1865820299,-0.0107153915,-0.1347189596,0.1698077282,-0.0373019994,0.3159911802,-0.0130199922,0.0044475886,-0.0278658437,-0.0113827942,-0.0057353608,-0.0856304380
