-0.7212298808,0.0100276248,0.0346702749,0.0352876679,0.0369460840,0.0303359697,-0.7457123109,-0.0975488327,0.0400134862,0.2425782222,-0.1083184416,0.4300869084,-0.0110078961,-0.3966899290,0.0446303581,-2.0778295814,0.9083114836,0.1636772198,-0.0857762513,4.3168627983,-1.1165113259,0.6725934095,-0.8187988196,-0.0703156095,0.0302190707,0.0132819944,0.1935428134,-0.1735249766,0.0239977955,0.0168798536,0.0390145632,0.7938124066,0.0118809674,2.3734486106,0.0413414737,-0.5925422092,-1.0500795529,-0.2041913956,-0.0184232073,-1.3923324976,0.0530277251,0.0037741197,0.1139328560,1.2786471246,0.0034342834,0.0568673686,0.1762780291,-0.0137074589,0.1843500990,1.7528794846,-1.5208905249,-0.9827436344,-0.8027257985,0.0911623887,-0.0089074284,-2.0620775688,-1.8197089398,0.8752198450,-0.0075916899,0.0104093057,0.3104947786,0.0782736177,0.8151244164,0.0794059906,-0.0440321823,0.0192515420,0.0134721924,0.6405464167,-0.5649088187,-0.0103799889,1.2442157927,-0.0079902459,0.0761046611,-0.5805375738,-0.7063832809,0.6068706704,0.1946314081,0.0063590701,-0.1104744008,-0.7120269710,2.4830212559,-0.2622030148,0.1717406882,-0.8610356410,-1.3960066079,0.1394705383,0.0255579977,0.0209902646,0.3913558280,-0.0825681793,0.0387332409,-0.0402426995,-0.0234616424,-0.0931620969,0.0386849771,0.6233816778,0.0153721523,0.1144191785,-0.0124756815,0.1087114786,-0.0358751769,-0.0104278628,-2.5825495333,0.0985884202,0.8422141902,-0.0100819156,0.6781008943,-0.7480009002,0.0376400642,-0.0224046271,0.0921430912,0.0121107464,0.0235079458,-0.0368439768,0.0152640611,0.9062533827,-0.0427835935,2.3125076401,0.7854619021,-0.3773134097,0.0110579852,0.0308362724,-0.0329284451,0.0101032698,0.0377098775,0.0125559835,0.7863702395,0.4322586868,0.0750294204,0.8021801654,0.0062009005,-0.8816760608,0.7368993915,0.6918963836,-0.1126883755,-0.0133622404,-0.8933091717,0.0406935150,-0.0076206328,0.0171245991,0.6022196015,0.6714308173,0.0385252961,1.0195811109,-0.0266459927,-0.1806195561,-0.0768569748,0.0182816537,1.9869993781,0.0235101280,-1.1399561023,-0.6515512505,0.0189253567,-2.5531444306,-0.3002396648,-0.1504958269,0.0887149131,-0.0086622388,-0.0660857027,-0.9572915376
